nep4_zbl 16 Ag Al Au Cr Cu Mg Mo Ni Pb Pd Pt Ta Ti V W Zr
zbl 0.8 1.6
cutoff 6 4 200 58
n_max 6 4
basis_size 12 8
l_max 4 2 0
ANN 80 0
 -8.3908594e-01
 -5.1817328e-01
  1.8678924e+00
  1.7021959e+00
 -2.1416054e+00
 -7.8387552e-01
  5.5790377e-01
 -2.5773352e-01
  3.3115368e-02
  9.6823171e-02
  6.1005288e-01
 -2.8524587e-01
  1.0944525e+00
 -3.3091524e-01
  6.8063241e-01
  5.8065945e-01
 -1.3545188e+00
  4.9633965e-01
 -3.8827109e-01
 -5.3830439e-01
  8.1780434e-01
  1.0226310e+00
 -9.8249155e-01
  1.2181184e+00
  3.9290914e-01
  4.4002252e+00
 -1.5288062e-01
 -2.5101075e-01
 -1.1037033e-01
 -3.2861230e-01
 -2.8233703e-02
  8.1752026e-01
  1.0377924e+00
 -4.8636041e+00
  1.7682314e+00
  1.8533031e+00
 -1.5150406e+00
 -2.3404291e+00
  2.5038642e-01
 -6.7243893e-03
 -3.3747521e-01
 -5.8113255e-02
  4.9576360e-01
 -5.7097363e-01
  7.8174436e-01
 -4.2482218e-01
  8.1445321e-02
  2.5647891e+00
  2.7375014e+00
 -5.2786195e-01
  7.2069532e-01
 -2.8542584e-01
  1.0684545e+00
  5.1155984e-01
  2.0285263e+00
 -1.0916100e-01
  4.2515402e+00
 -4.0243664e-01
  9.3747489e-02
  1.1204609e+00
 -1.1883217e-01
  1.7975895e+00
  2.1492503e+00
  1.2470549e+00
  1.6445181e+00
 -1.2139777e+00
  5.3047395e-01
 -2.3389490e-01
 -5.3252769e-01
 -1.8646942e+00
  2.0585050e-01
  1.5143862e+00
  4.0544757e-01
 -3.9858241e-02
  2.3294458e+00
 -6.3947922e-01
  1.5108972e+00
 -5.7074040e-02
  2.0074955e-01
 -1.4777150e+00
  5.9017026e-01
 -1.9949689e+00
 -1.0426728e+00
  2.4279704e-02
 -4.9366137e-01
 -1.9659556e-01
  3.8582167e-01
  1.0807244e-01
 -5.7540625e-01
  7.7565986e-01
  2.0414974e-01
 -5.1798165e-01
 -1.3766088e+00
  1.1418849e+00
 -7.6592344e-01
  2.1643554e-01
 -2.1978866e-01
  3.2338779e+00
  2.2889421e+00
 -8.8582599e-01
 -6.7456377e-01
  4.2469218e-01
 -8.2932287e-01
 -5.7685608e-01
 -7.8376758e-01
 -1.3674134e-01
 -4.3968520e-01
  3.6643097e-01
 -7.6375866e-01
  3.5664549e-01
 -1.6473690e-01
 -3.7753302e-01
 -1.6176237e+00
 -8.5416389e-01
  6.0182557e-02
 -8.1560338e-01
  5.6846663e-02
 -1.2391825e+00
 -2.8351843e-01
 -2.0219269e-01
  5.5004942e-01
  8.6900014e-01
  4.1871402e-01
  3.5635704e-01
 -5.2416050e-01
  1.2266421e+00
 -7.4240327e-01
  9.9608999e-01
 -1.9115702e+00
 -1.9480834e-02
  4.2094493e+00
 -3.6448565e+00
  2.2207248e+00
 -3.7261981e-01
 -3.4385760e+00
  9.2786670e-01
  1.2787856e-02
  5.4559976e-01
  5.7057106e-01
 -1.6140988e-01
 -5.4606810e-02
 -5.7482260e-01
  3.1202209e-01
  8.1116813e-01
 -7.5178182e-01
 -3.0102098e-02
 -1.8047600e+00
  2.5386415e-02
 -6.3133574e-01
 -1.0710056e-02
 -7.8780717e-01
  3.4555054e-01
  2.6775758e+00
 -2.9079628e-01
  4.5682141e-01
 -1.0954795e+00
  6.7436469e-01
 -2.5503871e-01
 -6.7462444e-01
  1.7543972e+00
  6.1835158e-01
 -1.5027097e-01
  1.6325681e+00
  1.6153185e+00
 -2.1368055e-01
 -3.6919588e-01
 -2.6612621e-02
 -2.8421459e-01
 -2.3441396e+00
 -5.7067402e-02
 -2.5249712e-02
  7.5342178e-01
  2.4790812e-01
  6.5480638e-01
 -2.1885975e-01
  8.1896073e-01
  2.2939225e-01
 -7.8297257e-02
 -2.7881080e-01
 -1.9228483e-02
 -1.5877804e+00
  6.9861937e-01
 -5.6872153e-01
  6.6903913e-01
  8.8328347e-02
 -1.5544951e+00
  6.5899837e-01
 -1.1406051e+00
  1.0750980e-01
  6.1532283e-01
  1.4164503e-01
 -6.7424989e-01
 -1.4078638e-01
 -3.8469237e-01
  6.3719057e-02
  5.4751712e-01
  2.6695393e-02
 -1.3262321e-01
  7.1494395e-01
 -2.6684299e+00
  4.2616144e-02
  1.8269461e-01
  2.3691395e-01
  3.9577034e-01
 -1.7689374e-01
 -1.2083272e+00
  1.7908319e+00
 -2.0096879e+00
 -2.1785875e-01
 -8.0049014e-01
  1.6685982e-01
  4.1568923e-01
 -1.2547784e+00
 -3.8373524e-01
  1.8761609e+00
 -8.0294661e-02
 -9.9141204e-01
 -1.4836009e+00
  2.4956034e-01
  1.5625622e+00
  6.6861284e-01
 -2.1638057e-01
 -2.1376038e-02
 -3.8312402e-01
 -1.3365209e+00
  3.1473398e-01
  6.7521107e-01
  1.7443074e-01
  5.0130850e-01
 -2.0598564e-01
 -3.6439061e-01
  4.2355392e-02
 -1.1222897e+00
  8.6977696e-01
 -7.5373536e-01
  2.7522096e-01
 -1.1548247e-01
 -7.7520597e-01
  1.1053565e+00
  1.0849742e+00
  2.1890967e+00
  2.2326159e+00
  1.3126360e+00
 -1.4765129e+00
  3.8272849e-01
  1.5207241e+00
 -2.1747448e-01
 -4.4239914e-01
 -2.4908042e+00
 -9.0990949e-01
  1.8053059e-01
 -3.7705672e-01
 -3.3980623e-01
 -2.6634052e-01
 -8.0126202e-01
  2.0843771e-01
  9.4040424e-01
 -1.5462830e+00
  2.9171777e+00
  1.7569191e+00
  2.7967799e+00
 -5.9650058e-01
  4.6679866e-01
  1.6649537e+00
  1.3735530e+00
  1.4243577e-01
  2.8844735e-01
 -1.1643182e-02
 -2.4148505e+00
  2.1024060e-01
 -6.9944668e-01
 -3.5647327e-01
  5.2679133e-01
 -1.3767248e+00
 -4.3001924e-02
  2.8827107e-01
 -5.1162452e-01
  2.6185232e-01
  2.7329314e-01
  9.9590695e-01
 -9.3600124e-01
  1.9303454e+00
 -7.7656811e-01
 -7.2906858e-01
 -2.5145707e-01
  2.2640693e-01
 -7.8691757e-01
  5.0172526e-02
  5.6287751e-02
  6.0108262e-01
 -6.4871740e-01
  2.0894053e+00
 -5.6265254e+00
 -1.1907110e+00
  1.0917047e+00
  1.0958062e+00
 -4.5655957e-01
  1.5075815e-01
  2.1198840e+00
 -2.0585756e+00
  3.2557303e-01
  5.5894250e-01
  1.2435646e+00
  8.4355569e-01
 -6.3963577e-02
 -6.2116142e-02
  1.3160153e-01
 -3.0004114e-01
 -4.7078076e-01
 -1.5688671e+00
  2.8722906e-01
 -1.4958775e+00
 -9.9138302e-01
  4.3238461e-01
  3.8899902e-02
 -1.9210202e+00
 -2.0318364e-01
  8.6948878e-01
 -6.8919057e-01
  8.8149138e-02
  2.5173419e+00
  1.7262040e+00
 -2.2162039e+00
 -4.4935226e+00
  4.4001327e+00
  1.7384955e+00
 -2.8372719e+00
  1.2963394e+00
 -4.0416408e-01
 -1.1468412e+00
 -1.1251355e+00
  4.7567625e-02
  6.3426036e-01
 -8.6349070e-02
 -1.1262668e+00
 -2.3834593e+00
  2.6726887e+00
  1.4801983e+00
  2.3142478e+00
  1.2338030e-01
  5.3015035e-01
 -2.8548324e-01
  2.4766688e+00
 -2.4796832e+00
 -1.2994449e+00
 -4.2745048e-01
 -1.2690104e+00
 -3.5379834e+00
 -9.6251816e-01
 -4.4274621e+00
 -7.4269295e-02
  4.9646936e-02
  3.6877058e-02
 -2.1707082e-01
  5.8468252e-01
  2.8909266e-01
  3.0868134e-01
 -5.3390378e-01
 -6.8913597e-01
  1.2910570e+00
 -4.5149720e-01
  2.6898846e-01
 -2.2109616e-01
  1.9002326e+00
  7.5948411e-01
 -1.9308196e-02
  2.8981590e-01
 -1.0972502e-01
  5.0283670e-01
  1.2821913e-01
 -3.1878382e-01
  3.1657055e-02
  2.0658527e-01
  1.9372156e-01
  1.4593751e+00
 -1.6287458e-01
 -8.5258704e-01
  3.1189269e-01
 -6.8639058e-01
  8.5390687e-01
  7.2772187e-01
 -6.2505549e-01
  3.8095590e-01
  2.1474366e-01
 -6.8811631e-01
 -1.1186153e+00
  1.0850176e+00
  2.8163774e+00
 -2.3405671e+00
 -1.0767870e+00
 -6.1652750e-01
  2.8608553e+00
 -2.8694978e-01
  7.1176368e-01
  1.0042882e+00
  1.3971475e-01
  2.2418449e+00
  7.0822102e-01
  5.7280755e-01
  2.2962830e+00
 -5.6337434e-01
  1.3682051e+00
  5.8598930e-01
  8.1651074e-01
  1.5944415e+00
  3.3541736e-01
  1.7256533e+00
  1.3175128e+00
  2.3057501e+00
  2.3307099e+00
 -2.4464242e+00
  1.9577444e-01
 -3.1498337e-01
  2.4849194e-01
  6.8938762e-02
 -1.0207735e+00
  3.2164133e-01
 -1.3967827e-01
 -4.2291167e-01
 -3.8486147e-01
  3.2973343e-01
 -2.5080615e-01
  5.1867896e-01
  3.9118305e-01
  5.3406537e-01
 -1.1204730e+00
 -9.2560816e-01
  7.9062521e-01
 -9.8327711e-02
 -1.0529206e+00
 -2.2317690e-01
  1.7924747e+00
  6.7665112e-01
  4.9378094e-01
 -1.0682197e-01
 -8.8707632e-01
  2.0029506e-01
  1.3127935e+00
  5.4014695e-01
 -6.8838936e-01
 -1.6896591e+00
  1.4604454e+00
  2.4667585e-01
  5.4736388e-01
  4.4180182e-01
  9.9210761e-02
  2.2324112e-01
  6.9530867e-02
  5.7101876e-01
  3.2318887e-01
 -5.2697252e-02
 -1.0426959e+00
  1.2543004e+00
 -1.4614062e-01
  9.7083873e-01
 -2.0223157e+00
 -6.6770148e-01
  3.7843254e-01
  7.8264311e-02
  2.6391625e-01
 -2.1050458e+00
 -2.3395762e+00
 -7.4793035e-01
  4.8331091e-01
  1.0753858e+00
 -6.3909078e+00
 -4.8339748e-01
 -9.4600379e-02
 -8.1536603e-01
 -1.2369371e-01
 -9.3848549e-02
 -2.6200025e+00
 -6.6791010e-01
 -8.5203689e-01
  8.9406198e-01
 -8.5584402e-02
  1.0927976e+00
 -1.4988454e-01
  2.6647127e-01
 -2.1278092e-01
  1.2263687e+00
 -3.2959306e-01
  5.3677428e-01
 -1.2956981e-01
  9.1423237e-01
  1.5045738e+00
 -4.2511977e-02
 -1.6024638e+00
 -1.0806978e+00
  1.0265546e+00
 -1.1550447e-01
 -5.3151050e+00
  5.1526463e-01
 -6.6351521e-01
 -9.1780138e-01
  5.0918585e-01
  1.0799966e+00
  1.7625217e-01
  3.3514687e-01
  6.4664207e-02
  9.8779780e-01
 -1.2810709e+00
  4.0989512e-01
  1.3316772e+00
  5.3697554e-03
 -4.0748471e-01
 -2.0104077e+00
 -4.3276623e-02
  7.5970322e-01
 -1.2030287e+00
 -1.0320946e+00
 -1.3364136e+00
 -2.3901496e+00
  5.9086967e-01
  4.7729096e+00
 -1.0167267e+00
 -8.0395013e-01
  8.1838542e-01
  9.5306170e-01
  1.3844675e+00
 -5.0064725e-01
  1.5020181e+00
  6.3082689e-01
 -8.2928014e-01
 -4.8746732e-01
  6.5774751e-01
  6.4774746e-01
 -1.1122526e+00
 -5.0870407e-01
 -2.6583188e+00
 -1.0658363e+00
  2.5161338e-01
 -3.5113069e-01
 -1.3222200e-01
 -7.0357546e-02
 -9.2110324e-01
 -1.6560175e+00
  3.2551211e-01
  1.0036225e+00
 -2.7584493e-01
  8.0348718e-01
  2.7270845e-01
 -1.6832476e+00
 -3.9895631e-02
 -6.7395067e-01
 -5.4592147e+00
  2.4625061e-01
  1.4702755e-01
 -1.1145656e+00
 -1.4483619e+00
  2.3958027e-01
  9.0553540e-01
 -8.5579371e-01
 -1.7048751e+00
 -3.5713673e-02
  5.4520119e-02
 -1.8721066e-01
 -3.1807683e-02
 -8.3254254e-01
  1.0953768e+00
  1.8594077e-01
  1.8804689e-01
  3.5431823e-01
  5.0984360e-02
  1.0767977e+00
  9.8964584e-01
  7.1094453e-01
  5.1004064e-01
  4.6668991e-01
  4.2423210e-01
 -7.9836972e-02
 -1.6954151e+00
 -8.5935771e-02
 -1.1486756e-01
 -2.3419207e-01
 -3.6302733e-01
  1.2251834e+00
 -1.5099233e+00
  3.0578833e+00
 -5.4111224e-01
 -1.5575591e+00
 -3.0657678e+00
  9.6265686e-01
  1.2517049e+00
  2.6438993e-01
  1.8835136e+00
 -5.6506403e-02
  8.4206939e-01
 -1.5319864e+00
 -1.0119159e+00
  1.4309815e+00
 -1.2281004e+00
  8.2393333e-02
  6.9920170e-01
  1.0941669e+00
  2.9493475e-01
  5.3780816e-02
 -1.4804047e+00
 -5.3337026e-01
  4.2640713e-01
 -3.0150570e-02
  3.2334828e-01
 -3.6280024e-01
  1.8639652e-01
  9.5749021e-01
  7.3539817e-01
 -1.3283210e-01
 -2.5343493e-01
 -4.4697264e-01
  3.4915435e-01
 -8.3323157e-01
 -1.2860581e+00
  8.8806736e-01
 -2.0118039e+00
  1.0970210e+00
 -1.3366308e+00
  1.4092963e+00
 -7.8506017e-01
 -1.3928939e-02
  4.9000540e-01
  2.6538659e-02
 -6.0576588e-01
  2.3726112e-01
  1.3333952e+00
  1.2451881e-01
  2.7887883e+00
  6.4107329e-01
 -8.7328643e-01
 -1.7466858e-02
  7.3639226e-01
 -1.4155240e+00
 -1.1087154e+00
 -6.6943610e-01
  2.6825208e-02
 -6.3672352e-01
 -2.4218113e+00
  1.7935538e-01
 -8.9640364e-02
  6.4545316e-01
  5.5863578e-02
 -3.5151694e-02
 -1.6348489e-02
  6.4868479e+00
 -2.8798306e-01
 -1.9513593e+00
  5.6385863e-01
  2.3174725e-01
  7.0467240e-01
 -2.9741735e+00
 -1.9651468e+00
 -1.8229253e+00
 -1.7498007e+00
 -1.1841451e+00
  2.2808709e+00
 -2.2697435e-01
  6.0900664e-01
  6.1110916e+00
  6.7561340e-01
 -1.3038014e+00
  1.3300894e-01
  1.1256374e+00
 -2.0898078e-01
  7.1944219e-01
  1.7896469e-01
  1.8497870e+00
  3.9457172e-01
  8.8618398e-01
  1.0048451e+00
 -3.4966010e-01
  1.1373751e+00
 -2.0131141e-01
  1.2335089e-01
  3.3754656e-01
  5.2169982e-02
  1.0637012e-02
 -2.8737599e-01
  1.8286487e-01
  1.4008116e+00
 -4.2393965e-01
  2.2251670e+00
  1.7117662e+00
 -1.8402702e+00
  6.8017262e-01
 -3.7885201e-01
 -8.0394924e-01
 -1.6279425e-01
 -6.1005932e-01
  3.0005977e-02
 -1.1185989e+00
  2.4396452e-01
 -2.4587652e-01
  5.1254280e-02
  2.6392049e-01
 -1.8400595e-01
 -1.7996953e+00
 -3.5354781e-01
  2.9911754e-01
 -1.0997421e+00
 -2.5242808e-01
  2.0231273e+00
  5.2537519e-01
 -1.5674655e-01
 -7.4698403e-02
  5.3823954e-01
 -1.3886229e+00
 -1.3789721e+00
 -8.7400860e-01
  3.9844143e-01
 -9.2326291e-02
  7.0946306e-01
  1.5940066e-01
 -5.6374365e-01
  1.1493539e+00
 -5.5494075e+00
  8.7693506e-01
  2.3792262e+00
 -5.4582864e-01
  1.9569395e-01
 -2.4847551e-01
 -9.9972659e-01
  4.2725873e-01
  2.9001145e+00
  3.7131079e-02
  3.2451811e-01
 -7.6325661e-01
 -1.1505266e+00
  2.3638872e-02
  5.8295108e-02
 -2.0395401e-01
  7.4969375e-01
  1.7216951e-03
  3.7407465e-03
  8.7834835e-02
  6.7715228e-01
  8.0371052e-01
 -5.1755023e-01
  1.2587337e+00
  2.2462869e+00
 -1.9981604e+00
 -1.2546083e-01
  3.4539831e-01
 -2.8921328e+00
  8.5314929e-01
  1.2218124e+00
 -2.1324399e+00
  1.4932516e+00
  2.2548385e+00
 -6.8926334e-01
 -9.7808447e-03
 -4.9752954e-01
  1.9557319e+00
  2.1908734e+00
 -1.2546058e-01
 -3.1289858e-01
 -2.3012948e+00
  3.2281911e+00
 -8.9327812e-01
  7.1301691e-02
  1.6549703e+00
 -1.8709143e+00
  3.4394689e+00
  1.1347833e-01
  1.5301949e-01
 -7.1051389e-01
  2.5849352e+00
 -9.9868320e-02
  4.7294471e-02
 -1.2331779e+00
  1.2634031e+00
 -1.2299263e-01
  4.6040974e+00
  3.2801563e-01
 -2.5082092e+00
 -8.9544159e-01
  1.1064678e-01
  3.2283667e-01
 -1.0139108e+00
 -1.1803480e+00
 -5.1234856e+00
 -1.1004473e-01
 -1.3469043e-01
  5.3462546e-02
 -4.8977473e-01
 -9.4003320e-02
  2.6043905e-02
  5.6903470e-01
 -2.1287475e+00
  7.7330518e-01
  6.4165103e-01
  5.0957189e+00
  3.0472165e-01
 -4.1941884e-01
  8.3390778e-01
  3.5920924e-01
 -1.0036577e+00
 -2.6045340e-01
 -5.1233299e-02
  1.2828407e-02
 -8.1756368e-02
 -1.3001579e+00
  2.5415168e+00
  4.0500653e-01
 -7.3812908e-01
  2.5142505e+00
 -7.6850724e-01
 -9.2415869e-01
  1.4827053e-01
  1.3956419e+00
  8.9873260e-01
 -2.9957271e-01
 -1.5354606e+00
  2.8437492e-01
  9.3265688e-01
  4.4844127e-01
 -1.6932378e+00
  9.3387932e-01
 -6.4435005e-01
  3.6078808e-01
  3.6236700e-01
 -8.5669369e-02
 -8.0797422e-01
  1.6307673e+00
 -1.0112580e+00
  1.2119911e+00
  1.0465397e+00
 -1.7862436e-01
  2.1098235e+00
 -5.6412381e-01
  1.8822882e-01
  5.6434608e-01
 -5.8670718e-02
 -3.5680288e-01
  3.5811073e-01
  7.5217533e-01
  1.2215035e+00
 -2.7287395e+00
  1.1728386e+00
  6.6945809e-01
  1.3655165e+00
  8.3130831e-01
  7.7900308e-01
  1.3299371e+00
  7.2993934e-01
  2.0367438e-01
 -1.0344834e+00
  1.8893917e-01
 -4.2209947e-01
 -1.1546804e+00
  1.5512935e+00
 -7.6094049e-01
  1.4229681e+00
 -9.4880223e-01
 -1.8345729e+00
  2.0664010e+00
 -6.5453941e-01
 -9.8545797e-02
  8.7355629e-02
  7.6102722e-03
  3.0910090e-01
  9.1949821e-01
 -7.8554146e-02
 -4.2469925e-01
 -4.7885340e-01
  8.4862232e-01
  2.9950845e-01
  6.2670276e-02
 -5.3317875e-01
  2.5246239e-01
 -7.8855477e-02
 -1.1336040e+00
 -1.3872907e-01
 -2.7253631e-01
  6.3749325e-01
  8.1711850e-04
 -2.0542584e-01
 -3.1357616e-01
  7.3013633e-01
 -2.2678719e+00
  2.4687429e-01
 -3.1977531e-01
  6.0964984e-01
 -6.3152336e-02
 -3.4967582e+00
  9.7411923e-02
 -5.3030443e-01
 -1.2343666e-01
 -5.4572117e-01
 -7.6187247e-01
 -2.7057743e+00
  1.4408092e+00
 -3.3704421e-01
  9.6046790e-02
  1.0046804e+00
 -6.5664452e-01
  9.6686780e-01
 -2.3557372e-01
 -3.5537496e+00
  3.2816562e-01
  4.5838308e-01
  1.5903133e+00
  9.9234506e-02
 -1.8719168e-01
 -3.0496803e-01
 -8.6585331e-01
  8.5782498e-01
  2.6456806e-01
  3.3800045e-01
 -5.4666334e-01
 -1.1938392e+00
 -9.4779801e-01
  2.3774375e-01
 -8.8750905e-01
 -2.0862707e-01
 -2.1000728e-01
 -5.2694273e-01
  9.1650683e-01
 -7.1614742e-01
 -2.1024110e+00
  8.2443637e-01
 -4.6641251e-01
  2.7509785e-01
 -8.6302519e-01
  1.0414165e-01
 -1.5665309e+00
 -1.6989358e-01
 -1.8183646e+00
  7.2088468e-01
  1.5708691e-01
  1.2023071e+00
 -2.2907477e-02
  3.7470329e+00
  1.4415190e-01
  1.7156208e-01
  2.1600109e-01
 -3.0533415e-01
  2.0604551e+00
  1.1677296e-01
  2.3524064e-01
  2.2996862e-01
  6.9962949e-02
  8.0451113e-01
 -1.2628033e+00
 -1.5500796e-01
  1.4588219e-01
  5.7545298e-01
  9.8318326e-01
  2.5134131e-02
  3.4532139e-01
  2.4635932e+00
  1.0098161e+00
  6.5421723e-02
 -5.6452608e-01
 -1.0348251e+00
 -1.8333210e-01
 -1.3833527e-01
  9.9265255e-02
 -1.5600593e+00
  4.6272080e-02
  4.8395237e-01
 -1.0846786e-01
  6.7487097e-01
  4.5692973e+00
 -1.6378120e+00
 -1.2281611e+00
 -8.5997485e-02
  1.1575232e+00
  1.9033760e+00
  7.0881283e-01
  4.7621697e-01
 -5.0525761e-01
 -7.1854211e-02
 -2.1926444e+00
  6.9069850e-01
  1.4722818e-01
 -1.2469128e+00
 -4.0662998e-01
  1.7746452e+00
 -5.3887683e-01
 -9.2672773e-02
  2.0558782e+00
  4.4040164e-01
 -2.4685650e+00
 -6.1285770e-01
  2.6924946e+00
  2.3658979e+00
 -5.7331598e-01
 -1.3103840e+00
  2.4992707e-01
  1.0106952e-01
 -3.1873682e-01
  1.4120753e+00
  3.0856724e+00
  2.6999593e-01
 -4.1573410e+00
  1.4951442e+00
 -2.0450473e+00
  2.8965781e+00
  4.4041677e+00
 -5.6531310e-01
  1.1518066e+00
 -1.1108238e+00
  7.7540570e-01
 -1.3286662e-01
 -7.7391165e-01
 -1.1896165e-01
 -1.3628005e+00
  5.5755329e-01
  3.1708518e-01
  3.7303004e-01
  2.5313696e-01
  1.6525824e+00
  3.0561706e-01
 -5.5930678e-02
  2.3153296e-01
  4.1059875e+00
 -7.9443616e-01
  2.1324410e-01
 -1.8321545e-01
  5.4269407e-02
 -9.8207712e-01
  6.5428281e-01
 -9.2882705e-01
  2.5023502e-01
 -3.5635632e-01
 -1.4663501e+00
 -6.7691928e-01
 -7.9901314e-01
  2.0347459e+00
 -2.6984271e-01
 -8.6739725e-01
 -6.5724295e-01
 -5.8401823e-01
  8.5267842e-01
  4.0770835e-01
  1.9984460e-02
 -6.7862952e-01
  1.4174362e+00
 -1.1308969e-01
  8.6495399e-01
  1.5509622e+00
  1.7498064e-01
  4.4699606e-01
  1.0010960e+00
  5.8396089e-01
 -8.1145905e-02
  3.2301572e-01
 -2.9256722e-01
 -2.0394151e-01
 -1.3294057e+00
 -3.2985324e-01
 -5.6618327e-01
 -8.1311956e-02
 -3.6486700e-01
 -1.2798295e+00
  1.1100878e+00
 -7.2966284e-01
  3.1569245e+00
  1.0296355e+00
 -2.9515934e-01
 -3.8606980e+00
  4.7317401e-01
  3.9652886e+00
  4.5417643e-01
 -4.6246487e-01
 -6.9021761e-01
 -2.3706880e+00
 -3.4008405e-01
 -2.3663101e+00
 -2.0881422e+00
 -1.0376778e+00
 -2.3418887e+00
 -6.0723758e-01
 -1.9627725e-01
  3.8767713e-01
 -2.4493523e+00
 -1.2927412e+00
 -1.1700511e+00
 -1.1797893e+00
  6.9624019e-01
  4.5795922e+00
  4.5756376e-01
  7.1696138e-01
  3.4546766e-01
  1.4751474e+00
 -1.3749374e+00
  7.7148014e-01
 -2.2409721e-01
 -1.0050651e+00
 -2.0118597e+00
 -2.1526117e+00
  2.8950398e+00
  2.8685439e+00
 -2.0364807e+00
 -2.2839935e+00
  2.9035373e+00
 -1.7006032e-01
  5.2133769e-01
 -1.2798426e+00
 -9.3534088e-01
  4.8383121e+00
 -4.7925237e-01
  1.4017028e-01
 -4.3635173e+00
 -9.1064429e-01
  2.4359629e-02
 -1.9653722e+00
  3.0793152e+00
 -4.8197392e-01
  2.2729478e+00
  9.5800704e-01
 -5.1393933e+00
 -2.9597178e-02
 -1.4872402e+00
  2.7854413e-01
  5.2257270e-01
  1.0872876e-01
 -1.5301393e+00
 -4.6806630e-01
 -1.8248625e-02
  4.9091309e-01
  3.9922041e-01
  1.0637577e+00
 -2.4175482e+00
 -1.6325798e+00
  2.9029520e+00
  1.4146632e+00
 -4.6897095e-01
 -3.9997834e-01
  7.2968429e-01
 -1.1179771e+00
  7.7482951e-01
 -8.5231885e-02
 -8.4572613e-01
  9.0691626e-01
 -3.0451223e-01
 -1.6845459e+00
 -1.1262490e+00
 -9.3552732e-01
 -3.6305222e-01
 -4.3125528e-01
 -1.8602647e+00
 -6.2106067e-01
 -1.7291404e+00
 -4.0078714e-01
 -7.2559512e-01
  4.0798131e-01
 -8.7866253e-01
 -4.5505521e-01
  9.7882509e-02
 -1.1273235e-01
  3.7195498e-01
  1.1925806e+00
 -4.8474491e-02
 -1.2636681e-01
 -7.5881660e-01
  1.1319698e+00
  5.2923888e-01
  5.6803018e-02
  7.6730096e-01
 -1.4597065e+00
 -1.3470110e-02
  3.2214236e-01
 -2.5313837e-02
  3.7487717e-03
  1.0276370e+00
  2.0988445e-01
  1.8117662e-01
  8.7451482e-01
 -4.6785501e-01
  2.9211241e-01
 -6.4822726e-02
 -5.6542766e-01
  1.2664249e+00
 -6.2781554e-01
 -1.3360765e+00
  1.7314816e+00
 -4.3985817e-01
 -2.8500411e-01
 -9.2182867e-03
  8.7764440e-03
 -6.8960166e-01
  1.3335854e-01
 -1.5716150e-01
  1.2212864e+00
  2.9892013e+00
 -1.6809213e+00
  1.6146438e+00
 -1.7832606e-01
  5.1085138e-01
 -5.5314809e-01
  6.6569477e-01
  5.0128776e-01
 -3.1230739e-01
 -2.1581080e+00
  1.5009211e+00
  5.2824974e-01
 -6.6582280e-01
 -4.8651487e-01
 -8.8803314e-02
 -1.4217271e+00
  1.2872571e-01
 -3.3131716e-01
 -8.6795992e-01
  2.7811328e-01
 -5.9607595e-02
 -5.1364726e-01
 -9.9681413e-01
  4.6324563e-01
 -1.2984843e+00
 -3.7906826e+00
  6.0929529e-02
 -8.0147165e-01
  1.0748461e-01
  7.5764894e-01
 -7.7077514e-01
 -5.0384653e-01
 -5.0329142e+00
  6.7100805e-01
  2.2636801e-01
 -9.8435336e-01
 -6.6501611e-01
  2.9584734e+00
 -1.8647369e+00
 -2.9228497e-01
 -1.4043628e-01
  1.7258611e-01
  2.9114482e-01
 -1.6124830e+00
  2.9220615e-02
 -1.3158153e-01
  5.0952137e-01
 -5.1171172e-01
  2.0040022e-01
  8.6856121e-01
 -1.9686560e-01
 -8.8170964e-01
 -1.1817057e-01
 -3.7931678e-01
  2.5526679e-01
  4.3139172e-01
 -5.9130061e-01
  1.3464226e+00
 -2.9763227e-02
  3.6686845e+00
  2.7025583e+00
  5.0134990e-02
 -7.7267724e-01
 -2.4884561e-01
 -4.9558184e-01
 -8.5577172e-01
 -2.8163889e-01
  1.8499604e+00
 -2.0745616e+00
  3.0776802e-01
 -1.7986959e+00
  7.7133274e-01
  1.5129815e-01
  4.5028795e-02
 -1.5331511e-01
 -2.2193962e-01
  1.3040347e-01
  1.7655679e+00
 -1.4997295e-01
 -1.9106887e-01
  2.0620530e+00
 -1.8729936e-01
 -2.0984671e-01
 -1.0259632e+00
  1.6263572e+00
  1.0671470e+00
 -4.3123993e-01
 -7.6244843e-01
  1.1230464e+00
  2.0090284e+00
 -3.9970800e-01
  6.8519354e-01
 -4.4296521e-01
 -1.1722778e+00
  7.2419189e-02
  1.4281297e+00
  6.1945683e-01
  7.0981824e-01
 -4.3563366e-02
  7.8744179e-01
 -9.5879078e-02
  3.2841802e-01
  3.2035968e-01
  3.0078566e-01
  4.9494162e-01
 -1.2517372e+00
  6.2820345e-01
  1.6463599e-01
  8.4569788e-01
  1.2228029e-01
 -3.8501686e-01
 -4.3440625e-01
 -2.7035844e-01
 -4.5048296e-01
  2.0163381e-01
  1.1627944e+00
  7.4954402e-01
 -1.1920379e-01
 -1.8158619e+00
  1.2276028e+00
 -5.0765580e-01
  6.9541609e-01
 -4.0583190e-01
 -3.9179069e-01
  2.7451720e-03
  1.1242568e-01
  5.5275488e-01
 -1.0062151e+00
 -1.2755357e-01
  4.9023151e-01
 -6.1569470e-01
  5.6163782e-01
 -8.3265960e-01
 -1.3082294e+00
 -9.6235532e-01
 -4.9455208e-01
 -1.0366362e+00
  7.4785972e-01
 -4.8025283e-01
 -7.3127002e-01
  3.8652351e+00
 -4.0428296e-01
  2.3327954e+00
  3.9887545e-01
  1.5042712e-01
 -1.7886864e+00
 -4.6251777e-01
 -3.1460431e+00
 -7.0360237e-01
  7.4557060e-01
  6.6497052e-01
 -2.1324977e-01
 -7.9737782e-01
 -2.1332855e+00
  2.1330863e-01
  1.0904154e+00
  6.2570763e-01
 -9.9048364e-01
  1.9906482e-01
 -2.2263560e+00
  1.1000419e+00
  4.0288730e+00
 -6.1906970e-01
 -2.3510809e+00
  3.0242343e+00
  1.8628688e+00
  5.0620162e-01
 -1.1413887e+00
  6.1201811e-02
 -8.6508137e-01
 -2.2092505e+00
 -1.1672325e+00
 -4.7157235e-02
 -1.2720245e-01
 -4.4953036e-01
 -9.3093497e-01
 -8.0976492e-01
 -1.3758032e+00
  4.1968241e-01
 -1.9755422e+00
  3.0851695e-01
 -2.2024803e+00
 -1.5118781e+00
  1.5323346e+00
  9.1468573e-01
 -1.2223221e+00
 -1.2462826e+00
  1.5285058e+00
 -2.0320185e-01
 -2.7394700e+00
 -7.9823190e-01
 -1.6191559e-01
 -3.7767592e-01
  1.4020030e+00
 -6.3444072e-01
  3.7903178e-01
  7.4012667e-02
 -7.6000553e-01
 -6.5502977e-01
  7.6754767e-01
  2.7793115e-01
  2.2534505e-01
 -1.1921721e+00
 -3.3305982e-01
 -8.6076373e-01
 -2.0950453e-01
 -2.0703536e-01
  6.5536320e-01
 -5.6411743e-01
 -2.6198244e-01
 -2.5711811e-01
 -3.8094777e-01
 -1.7113627e-01
  3.0133286e-01
  1.8496603e+00
  1.4907774e-01
  3.8738111e-01
 -1.3735884e+00
 -7.6670390e-01
  7.8424937e-01
  7.1049303e-02
 -5.6868148e-01
 -1.6454199e-01
 -6.8613946e-01
  5.0228649e-01
  5.0937015e-01
  4.3258294e-01
  3.7963271e-01
 -4.5346683e-01
  9.7734615e-02
  1.9467238e-01
  1.0750418e+00
 -1.8260822e-01
  8.1558448e-01
  6.2690549e-02
  6.7147636e-01
  2.1249261e+00
  1.0248863e+00
  7.5065500e-01
  8.6424798e-01
 -9.4375128e-01
  5.6388539e-01
 -6.6032106e-01
 -3.6412099e-01
 -3.6222371e-01
  3.3231467e-02
  4.3518710e-01
  1.6155810e+00
  4.3464452e-01
 -2.1824441e+00
 -2.9585162e-01
 -1.3288091e+00
  1.1504561e+00
 -2.8656486e-01
  2.8908741e-01
 -3.5133821e-01
 -4.2791194e-01
  2.5527650e-01
  1.8708104e+00
  1.8890184e+00
 -1.1629213e+00
  7.5132549e-01
 -6.2429851e-01
  1.9215540e+00
 -4.2953900e-01
  5.2254834e+00
 -2.5247669e-01
  4.0902683e-01
  6.8451114e-02
 -1.9663315e-01
  3.0675850e+00
  6.8233091e-01
  2.5650668e-01
 -5.0621092e-01
  1.4787012e+00
 -2.0015220e-01
  3.6076668e-01
  1.8428995e-01
  3.7655392e+00
 -1.5844979e+00
  7.9384381e-01
 -3.9190617e-01
 -2.9657292e-01
 -5.9834903e-01
 -1.4957230e+00
 -7.4458516e-01
 -8.1160122e-01
  2.6472396e-01
 -5.7623804e-02
  1.1577783e+00
  1.6170114e+00
  1.2160157e+00
 -1.2901779e+00
 -2.7214324e-01
  6.2272155e-01
 -5.5215782e-01
 -4.5253244e-01
  4.9020359e-01
  3.2304099e-01
 -3.9723653e-01
  3.3135906e-01
  2.4049711e-01
  8.0831236e-01
 -7.5690693e-01
 -9.0387869e-01
 -4.2436740e-01
 -1.3144838e+00
 -5.6538707e-01
  1.8911954e+00
 -4.0543774e-01
  3.7280619e-01
  9.4439521e-02
  6.6981798e-01
 -1.5729656e-02
 -2.0727500e-01
  5.6649852e-01
  4.5926104e+00
 -1.4049470e+00
 -1.7452326e+00
  5.7442451e-01
  2.0295440e-01
 -5.1543493e-02
  1.1785205e-02
  1.1433959e-01
 -1.2791276e+00
  1.1668077e+00
 -1.2405453e+00
  2.2573842e-01
  1.4783410e+00
  1.4545356e+00
 -1.0839391e+00
 -2.5555915e-01
  1.1253439e+00
  5.2480870e-01
 -1.5810583e+00
 -5.4491007e-01
  5.5256706e-01
 -6.6046178e-01
  5.6054413e-01
 -1.4289511e+00
  1.4172619e-02
  1.2933939e+00
  1.5506128e+00
 -6.5395051e-01
 -2.0833798e-01
 -2.9400045e-01
  1.3659736e+00
  1.4325370e-01
 -3.4776780e-01
  1.1081654e-02
 -2.3774621e+00
 -1.0680619e+00
  4.5073754e-01
 -4.0607801e-01
  3.0186206e-01
 -7.9826348e-02
  2.1386868e-01
  9.5524788e-01
  1.5757811e-01
  4.0092203e-01
  2.4514173e-01
  5.3954846e-01
  2.5043491e-01
  7.7596539e-01
 -1.3059694e+00
  3.4023225e-03
  1.1253275e+00
 -1.4866161e-02
 -1.0654230e+00
  4.3282074e-01
  4.0578187e-01
 -4.9219638e-01
  1.7943710e-01
 -1.8170932e-02
  7.2081542e-01
 -7.0673394e-01
 -1.0756467e-02
 -3.3055285e-01
 -6.3265812e-01
  3.3722103e-02
  2.7824229e-01
  3.4104681e+00
 -9.4461340e-01
 -4.8208365e-01
 -9.4249171e-01
 -2.8050569e-01
  1.6109752e-02
  4.0466183e-01
 -3.0907351e-01
 -2.9228320e-02
  8.0252612e-01
 -1.1868825e+00
 -1.1758336e+00
 -3.2639840e-01
 -3.8742709e-01
  3.6188501e-01
 -1.4033270e+00
 -7.4947298e-01
  9.9200308e-01
  3.5791740e-02
  6.6859251e-01
  1.1857553e+00
  7.8242600e-01
 -9.8291583e-02
 -5.4852914e-02
  1.9514561e-02
  1.1552624e+00
  5.0892127e-01
  2.7565122e-01
  4.0044880e-01
 -1.0289590e-01
 -5.0549275e-01
  1.4332889e-01
 -3.4462997e-01
 -1.7729942e-03
  1.7425402e+00
 -1.6008304e+00
 -9.9578780e-01
  3.4575975e+00
  6.9471111e+00
 -5.5091505e+00
 -3.8174706e+00
 -8.8897264e-01
  2.1935134e+00
  1.1067867e+00
 -8.4309936e-01
  1.3086711e+00
 -8.2454395e-01
  2.7556295e+00
  1.2214456e+00
 -8.0625165e-01
  5.2861691e-01
  7.3449194e-02
  2.5965331e+00
 -8.0926085e-01
  1.4650991e+00
  6.4587408e-01
  2.6751077e-01
  3.8231323e+00
 -1.2114210e-01
 -1.9125742e+00
  2.5643172e+00
  1.0802852e+00
  4.9414331e-01
  6.6262895e-01
  6.1789632e-01
  5.8067832e-02
 -1.5988256e+00
  1.4697484e+00
  9.9184978e-01
  8.4781088e-02
 -1.3293009e-01
 -2.4531947e-01
  1.3829510e+00
 -5.8755986e-02
 -2.7157858e-02
 -9.7434080e-01
  5.2283619e-02
  3.1243524e-01
 -4.9894190e-01
 -6.0688794e-02
 -3.6399168e-01
 -1.3049783e+00
  4.9620351e-01
 -6.4712249e-02
  9.5518279e-01
  2.4253774e-01
 -1.1087554e-02
 -7.4599758e-02
  5.5691564e-01
  7.7968724e-02
 -9.1709346e-01
  2.8561091e-01
  3.3831787e-01
 -4.8284554e-01
  1.3316071e+00
 -4.4030586e-01
 -8.6867936e-02
 -8.2359487e-01
 -1.3505539e+00
  7.1730912e-02
 -2.2735508e-01
 -5.4470243e+00
  1.9805106e+00
 -9.3127781e-01
  9.3942750e-03
  3.8272893e+00
 -1.2788119e-02
  1.3011677e+00
 -7.7027518e-01
  6.7280851e-02
  3.0560651e-01
 -7.3879039e-01
  9.4204783e-01
  7.3504323e-01
  2.7605599e-01
 -4.0254995e-01
 -5.0319648e-01
 -1.5007221e+00
 -1.9321726e-01
 -5.5790145e-02
  1.8865360e+00
  1.7103928e+00
 -2.4614785e+00
 -3.3283067e-01
 -1.4324702e-01
  9.8616458e-02
  2.5172213e-01
 -2.9641709e-01
  4.7226675e-02
 -3.6138880e-01
  4.6270499e-01
 -1.4317803e+00
  1.0834625e+00
  9.8020720e-01
 -7.3626339e-01
 -1.2266800e+00
 -1.3883872e+00
 -8.6406893e-01
  1.4622606e+00
  3.0936456e-01
  1.9285835e+00
  1.0077366e-01
 -1.7005841e+00
  1.2430476e+00
 -9.0222853e-01
  4.5498210e-01
 -8.3159560e-01
  2.9244418e+00
  1.2386072e+00
 -2.2301176e+00
  1.3374302e-01
 -6.6904828e-02
  9.8426417e-02
  2.3064463e+00
 -3.1398320e-01
 -4.7072163e-01
  1.8297975e+00
 -1.1517738e+00
  6.5575469e-01
 -7.2538882e-02
  6.6233262e-02
 -4.7414413e-01
  1.3679999e-01
 -3.6194136e+00
  9.2592502e-01
 -2.0800743e+00
 -3.1666737e+00
 -8.2582730e-01
  5.5265677e-01
  3.2008031e-01
 -1.0424011e+00
 -2.4239109e-01
 -9.9892491e-01
 -9.4581813e-01
 -1.7246290e+00
  1.0257131e+00
  9.1605598e-01
  1.1999658e+00
 -2.1621841e-01
 -1.8437257e-01
  1.2351736e+00
  5.1750439e-01
  2.7446601e-01
 -4.5084479e-01
  2.5178292e-01
 -5.0381505e-01
 -4.2690280e-01
  2.3272753e+00
 -4.7076648e-01
 -2.8881707e+00
  2.8135749e-02
 -5.1808739e-01
 -3.6245337e-01
 -1.7468233e-01
  1.0957360e+00
  7.3023427e-01
 -3.6308712e-01
  1.7959733e-01
 -6.1642617e-01
 -7.2403066e-02
  2.2747223e+00
  2.1407150e-01
  1.5640397e+00
 -1.5499448e+00
  3.4848563e-02
  2.7591211e-01
  2.4758961e+00
 -8.4322315e-01
  2.2804667e-01
  2.2828604e-01
  1.4296492e+00
  9.8399943e-01
  1.6837168e-01
  8.9764684e-01
  8.8333791e-01
  2.2793531e-01
 -2.8187534e-01
 -1.4800007e+00
  1.5255864e+00
 -2.7167893e-03
  8.3072877e-01
 -6.7768335e-01
  1.6390872e-01
  9.5984572e-01
 -9.2747313e-01
  1.0088772e+00
 -4.5717144e-01
  2.9633319e+00
 -1.8511349e+00
 -2.1772947e+00
 -9.7867154e-02
 -3.0746789e+00
 -2.9008365e-01
  5.3117424e-01
  8.9640222e-02
 -1.6197373e+00
  4.1815376e-01
  3.7893382e-01
  7.5918698e-01
 -6.5756490e-04
 -1.2781779e+00
 -3.5888813e-02
  4.7832426e-01
 -6.1167008e-01
 -1.5758729e-01
 -6.2886316e-01
 -1.1503428e+00
 -3.4065467e-01
  5.7683420e-01
  4.3594122e-01
  3.1155527e-01
  6.9901299e-01
 -3.6220005e-01
  6.8776494e-01
  1.4037409e+00
  6.9591939e-01
  7.5947687e-02
 -2.9935138e-03
 -8.6261338e-01
 -2.3353559e-01
 -5.9381270e-01
 -2.4265752e+00
 -7.1521306e-01
  2.3085913e-01
  2.9427528e-01
  3.7927610e-01
  6.6303802e-01
 -5.0788027e-01
 -6.0071570e-01
  1.7435667e-01
 -5.2137321e-01
  1.4632925e-01
 -2.8713578e-01
  8.6807621e-01
 -1.5231107e-01
 -4.2533228e-01
  1.0548590e-01
  2.6000759e-01
 -4.0212430e-02
  7.4471825e-01
  6.5106452e-01
  1.1519495e-01
  5.2127473e-02
  1.4026052e+00
 -2.1611085e+00
 -1.5916009e+00
  1.1015273e+00
 -1.9610591e-01
 -6.3259321e-01
 -2.7993777e-01
 -4.6900365e-01
  1.6710908e+00
 -1.0880512e+00
  4.0109668e+00
 -1.3256817e+00
 -3.8152008e+00
  5.5816698e-01
  2.5422081e-01
 -6.7647153e-01
 -2.9301938e-01
  9.1293389e-01
 -8.8213282e-03
 -2.7347534e+00
 -4.3631945e+00
 -6.0232246e-01
 -4.7558790e-01
 -7.8506902e-02
  2.2413093e-01
  7.0192999e-01
  5.2867942e+00
  1.5028270e+00
  1.1634359e+00
  1.0367955e+00
 -3.1852543e+00
 -1.0553159e+00
 -1.2339585e+00
  8.1991243e-01
 -1.7231908e+00
 -1.8486413e-01
 -7.6872009e-01
  3.3525217e-01
  4.6220487e-01
 -5.3552836e-01
  2.0794833e-01
 -9.0133774e-01
 -5.8879519e-01
  4.7754481e-01
  2.3372173e-01
 -5.5070706e-03
  6.6322021e-02
 -6.7166460e-01
  1.4570265e+00
  1.2217827e+00
 -5.5781114e-01
 -2.7042037e-01
  8.2758117e-01
  1.9194822e-01
 -2.3680861e-01
 -1.0026143e+00
  1.5786755e+00
  2.9373145e-01
 -7.2485298e-01
 -7.5784492e-01
  9.6884906e-02
 -6.1327312e-03
 -1.2051914e+00
  1.5899458e+00
  1.5315385e-01
  7.9804975e-01
  6.5755910e-01
 -2.0488865e+00
 -1.4628410e+00
  1.7379066e-01
 -1.7240378e-01
  5.7506573e-01
 -1.0862318e+00
 -9.7605276e-01
  2.2624054e-03
  1.1929852e+00
 -7.8358972e-01
  9.5003068e-01
 -8.3678854e-01
  1.0739686e+00
 -3.2386798e-01
 -7.0231891e-01
  5.6027975e-02
 -6.0395968e-01
  3.3941758e+00
 -3.1705013e-01
  4.0548611e-01
 -2.4815507e+00
 -2.7759409e-01
 -6.3807049e+00
 -2.1794575e-01
  1.3956109e+00
 -1.3626834e+00
 -4.1655684e-01
 -1.7804763e-01
  8.7516987e-01
  8.2807606e-01
 -2.5050533e-01
  1.2010655e-01
 -4.8430386e-01
 -5.2359766e-01
  9.7885683e-02
  2.8778404e-01
  8.0774152e-01
 -6.6935092e-01
 -1.0656059e+00
  5.8564532e-01
  2.7110534e+00
 -2.4060402e+00
 -1.0993204e+00
 -1.0525861e+00
  5.4788456e+00
  7.4644946e-02
 -7.7285910e-01
  2.3061794e-01
  5.2582794e-01
  3.1654997e+00
  7.2244298e-01
 -2.3104693e-01
  3.0230537e-01
 -7.6571125e-01
  1.8844573e+00
  1.3954184e+00
  4.8192391e-01
  6.0747671e-01
  3.5686588e-01
  2.5162169e-01
  1.7392366e+00
  1.1752555e+00
  9.0318120e-01
  1.2757464e-01
 -7.9655707e-01
 -4.8242724e-01
 -1.5439799e-01
 -7.9083884e-01
  3.2491174e-01
  6.3574171e-01
  1.0587223e+00
 -5.5255741e-01
 -3.0750854e+00
  1.9123276e+00
  1.4840281e+00
  8.7026948e-01
 -2.5596271e+00
 -6.9000903e-03
  6.3328588e-01
  1.5426445e-01
 -6.2388313e-01
 -1.6784296e+00
 -5.7055181e-01
 -1.6078879e-03
 -8.2643181e-01
  6.2787500e-03
 -1.5732121e+00
 -2.1126167e-01
 -1.3633534e+00
 -8.4120321e-01
  2.9012296e-01
 -2.8195753e+00
  1.5621180e-02
 -1.3061029e+00
  1.4254141e+00
 -5.4779083e-01
 -2.5808015e-01
 -2.7842051e-01
 -8.8100970e-01
  2.5807524e-01
  5.2110690e-01
  3.5711792e+00
 -1.1365356e-01
  6.7604661e-01
 -4.6295542e-01
  9.6025044e-01
  9.9865049e-01
  1.8619564e+00
 -1.4417146e+00
 -1.2114583e-01
  4.1070066e-02
  4.0556675e-01
  9.6554153e-02
 -6.4857835e-01
 -2.0104106e-01
 -4.5195684e-02
 -9.8916298e-01
  4.5067930e-01
 -1.5380971e-01
  2.0349440e-01
 -6.0640872e-01
  1.6326784e-01
 -3.8389331e-01
 -6.6237706e-01
  2.9186729e-01
  2.5286219e-01
 -3.8413037e-02
  1.8666762e-01
  5.5378515e-01
 -6.6051054e-01
  2.6994622e-01
 -1.6373372e-01
 -2.6320064e-01
 -8.3900586e-02
  6.4038968e-01
 -1.2245171e-01
  4.4166327e-01
 -3.2376483e-01
 -9.8022681e-01
 -9.6527922e-01
 -1.1344102e-01
 -3.2580599e-01
 -5.6466181e-02
  7.9098773e-01
  1.0696238e-01
  3.5555196e-01
 -7.7413797e-02
 -9.0952623e-01
  2.5517485e+00
 -3.6510795e-01
  1.8848407e+00
 -1.6972828e+00
  6.5435094e-01
 -1.5123942e+00
  3.7786126e-01
  1.2934529e+00
  1.3687795e-01
 -3.0539539e+00
  1.6089585e+00
 -8.8155568e-01
 -3.6531296e-01
 -1.0163114e-01
  4.3083230e-01
  6.6277081e-01
  1.6853200e+00
 -6.9696152e-01
 -2.1273918e+00
 -2.2078512e+00
 -2.9542546e+00
 -3.5700138e+00
  1.7216201e-01
  3.0203137e+00
 -1.2970220e+00
  1.8516582e-01
 -4.1710131e-02
  6.1501062e-01
  6.0389668e-01
  1.1435392e+00
 -3.7618300e-01
 -8.4833719e-02
 -5.2364689e-01
  1.4848142e+00
  3.7846494e-01
  4.0792078e-02
  6.5274894e-01
 -1.1285456e+00
  4.6564281e-02
  4.7525615e-01
  2.8277085e+00
  4.6771652e-01
 -5.7037073e-01
  1.6216921e+00
 -2.5630954e-01
  3.0548874e-02
  9.1004640e-01
 -3.2522731e-02
 -1.0224968e-02
  2.3434889e+00
 -2.1288498e-01
  7.0990823e-02
  5.8576081e-02
  1.0884403e+00
  5.7999218e-01
 -3.1718137e+00
 -1.7318944e+00
 -2.3383849e+00
 -1.1961837e+00
  9.0487874e-01
 -7.3079973e-01
 -5.4054809e-01
  8.8346261e-01
  1.2576770e+00
  5.4467039e+00
 -2.6245129e-01
 -3.0552616e+00
 -1.1270591e+00
 -6.7042917e-02
  9.5357102e-01
  9.3625993e-01
  5.1876426e-01
 -2.6692061e+00
 -1.9295340e+00
 -2.7752790e-01
 -2.2082655e-01
 -2.0278702e+00
  9.1435069e-01
  2.2902439e+00
  2.2996714e+00
 -3.8849512e-01
  4.6231332e-01
 -1.1659333e+00
  2.0011475e+00
  2.4437515e-01
  8.6766762e-01
 -4.7008877e+00
 -5.4232770e-01
 -8.8189363e-02
  1.1708970e+00
 -3.4341407e-01
  1.0101600e+00
 -3.6247103e-03
  3.3985043e-01
 -2.6891375e-01
  4.2844194e-01
  1.1946785e+00
  1.3678879e-02
 -1.5916720e-02
  1.3655299e+00
 -6.5185827e-01
  5.6685865e-01
 -3.7809066e-02
  4.8064968e-01
  4.3088558e-01
  2.4293392e+00
 -1.1358284e+00
  3.8639921e-01
 -4.0215698e-01
  1.9416581e-01
  5.8932650e-01
 -1.4479969e+00
 -4.2377266e-01
 -1.0735091e+00
 -9.4961214e-01
 -3.8803020e-01
  8.6985862e-01
 -4.6853566e-01
 -1.4938606e+00
 -3.9116600e-01
  4.7801843e-01
 -4.1611353e-01
 -8.3932370e-01
  1.2056395e-01
 -4.1450411e-01
  4.8763752e-01
 -6.1809951e-01
 -2.0195148e+00
  1.0212015e+00
  1.0731439e-01
  2.2148097e+00
 -4.3518010e-01
  1.7851191e+00
  3.3454055e-01
  5.8015410e-02
 -5.1053673e-01
 -1.1847994e+00
  1.3670111e+00
  1.3810048e+00
 -5.1482862e-01
 -5.3624487e-01
  2.4192022e-01
  4.1900453e-01
 -9.7033244e-01
 -3.3274615e-01
  5.0360012e-01
  6.0850060e-01
  7.3186535e-01
 -8.9334570e-02
  2.4301188e+00
  1.8615370e+00
  3.2734599e+00
 -1.9444898e-01
  1.8107870e+00
  2.2974521e-01
 -1.6508129e+00
  6.4783317e-01
 -1.0651639e+00
  3.9579359e-01
 -6.5126874e-02
  5.2087128e-01
 -7.9301375e-01
 -1.3896886e-02
  2.2646191e+00
 -1.6210140e+00
  1.9267794e-01
 -5.7233971e-01
  1.9620600e-01
 -1.5609564e-01
 -9.4395804e-01
 -1.2179610e+00
  3.6036059e-01
  8.3118945e-02
  1.6762437e-01
  8.2140066e-02
 -1.2714869e-01
 -2.7233349e-02
  2.4398646e+00
  1.4296770e-01
 -1.2228429e+00
 -5.4483646e-01
  9.3641376e-01
  5.6781504e-02
 -3.9630324e-02
 -1.5676546e+00
  1.0983090e-01
  3.7340811e-01
  2.1551166e+00
 -9.9470919e-01
 -6.6548824e-01
 -5.4490876e-01
  3.2084405e-01
 -3.7747252e-01
  2.0623381e-01
 -5.2558017e-01
  2.9091485e-02
 -3.1832147e-01
  5.1573863e+00
  3.6771023e-01
  7.2718577e+00
 -1.1958679e+00
 -6.7571801e-01
 -3.8734597e-01
 -3.5574672e-01
  5.6645550e-02
 -9.6119291e-01
  1.1143773e+00
 -4.2426872e-01
 -3.0646130e-01
 -9.9490625e-01
 -6.2162757e+00
  6.9163239e-01
  4.1423425e-01
 -2.0804727e+00
 -3.2123878e+00
 -2.0659056e+00
  5.9840471e-01
  2.3969791e+00
 -3.7729985e-01
  1.1293477e+00
  6.0264427e-02
 -2.0875032e+00
  1.3268037e+00
  2.2342090e-01
  1.5463382e+00
 -1.3099329e+00
  4.8814684e-01
  1.1944418e+00
  2.0221300e-01
  2.8345430e-01
  2.2498431e+00
 -4.6733648e-01
  2.5600562e+00
 -3.2869932e-01
  1.0221363e-01
  4.7588080e-01
  3.9891538e-01
 -8.0230618e-01
  1.2883877e+00
 -1.6172850e+00
 -9.8995842e-02
 -5.9454751e-01
 -8.6243659e-01
 -7.2400552e-01
  9.8210052e-02
 -1.1405883e+00
 -1.8105593e-01
 -1.2787813e+00
 -3.6048076e-01
 -3.4646872e-01
  1.6853920e-01
  1.4354514e+00
  1.2924690e+00
  7.8238863e-01
  2.5326782e-01
  3.1836353e-02
 -8.0607831e-01
 -4.0704948e-01
  5.5795676e-01
  1.0225877e+00
 -5.4500127e-01
 -8.0209136e-01
  8.8662773e-02
 -1.5526712e-03
 -5.0318474e-01
  4.7567913e-01
 -3.9494219e-01
  5.0548440e-01
  1.0117122e-03
  1.1899092e-01
  8.1947881e-01
  2.9021442e-01
  6.7556953e-01
 -3.6187224e+00
 -1.1139032e+00
 -1.8720804e+00
  3.8495615e+00
 -6.1493641e-01
 -2.9338980e+00
 -2.3111701e+00
  2.9774964e-01
  5.0573903e-01
  7.1576692e-02
 -2.9755878e+00
 -3.1976408e-01
  1.3472624e+00
  1.4041725e-01
  9.7824144e-01
 -2.2981398e-01
 -8.5357380e-01
  9.6565008e-02
  5.6315458e-01
  4.9477437e-01
 -3.9089811e-01
 -1.0190625e+00
  3.0612142e+00
  1.4558104e+00
  5.5334938e-01
 -3.5220921e+00
  4.3787733e-01
  1.6221292e-01
 -3.4222952e-01
 -7.9830736e-02
 -1.1401420e+00
 -3.9714149e-01
  6.3571656e-01
  7.6910496e-01
 -6.3230181e-01
 -2.5771756e+00
  1.9201301e+00
  1.0357455e+00
  6.3910037e-01
 -2.6936302e+00
 -2.8393081e-01
 -3.3018550e-01
 -3.5696465e-01
  5.9628163e-02
 -2.4711969e+00
 -5.2739006e-01
  2.8156093e-01
 -7.7293181e-01
  7.9195583e-01
 -2.3366754e+00
 -6.1262470e-01
 -7.6440805e-01
 -2.9495838e-01
  1.3203837e-01
 -1.3438268e+00
 -1.5202479e+00
 -1.5135390e+00
  5.8873713e-01
  8.5641795e-01
 -1.5122759e-01
 -1.9067343e-01
  4.2861030e-01
 -1.1160021e-01
 -5.3789842e-01
  6.5599370e-01
  1.6113057e+00
  3.6759138e-01
 -9.7103739e-01
  2.2092650e+00
 -8.2680389e-02
 -8.9487982e-01
 -2.4159120e-01
  1.4347649e+00
  5.8820540e-01
  1.4178306e+00
 -6.9211745e-01
 -2.9534695e+00
  2.9277313e-01
 -5.4624081e-02
  4.7435868e-01
 -3.2157671e-01
  2.4295276e-01
  4.8053169e-01
 -2.8161851e-01
  1.3052566e+00
 -4.2346111e-01
 -1.6853362e-01
  1.9709453e-01
  8.5702407e-01
 -1.5647238e-01
  3.6285856e-01
 -6.4680815e-01
  7.6214248e-01
  1.3828343e-01
  8.1004477e-01
 -6.5310192e-01
 -5.1781036e-02
 -4.6762651e-01
 -1.3472271e+00
 -5.5229992e-01
 -1.0055065e+00
 -1.7943165e-01
 -1.1792814e+00
  6.7790914e-01
  4.6864848e+00
 -4.3006924e-01
  6.0009521e-01
 -1.9707982e-01
  8.5597074e-01
  1.1268463e+00
 -3.2322612e-01
 -2.4469088e-01
 -2.8239137e-01
 -1.7709897e-01
 -1.8041894e+00
 -1.2944283e+00
 -1.0572049e-01
  9.7554845e-01
  1.2834631e+00
  1.0587659e+00
  9.9655920e-01
  7.8118664e-01
 -7.3850411e-01
 -1.6395321e-01
 -1.5002461e-01
  2.3035505e-01
 -8.7307352e-01
  8.6372918e-01
 -2.4834770e-01
 -2.2768070e-01
  1.2901680e+00
  1.3230023e+00
 -1.8110263e+00
  9.9574876e-01
  2.9610288e+00
 -2.4765728e+00
  7.0710081e-01
 -6.1740053e-01
  1.6179392e-01
 -3.7713245e-01
 -9.2293340e-01
  1.6984508e+00
 -2.0030479e+00
  3.7811782e+00
 -8.0600750e-01
 -2.5901735e+00
  4.0051737e+00
 -1.0950445e-01
  1.2138001e+00
 -1.4189048e-01
 -1.7660694e+00
 -4.3169708e+00
 -2.6485162e+00
 -2.1906443e+00
 -1.0301355e+00
 -8.2710063e-01
  2.0486271e+00
 -1.4200791e+00
 -1.3742296e+00
  9.3778080e-01
 -1.2413528e+00
 -1.0668534e-02
 -7.2428501e-01
  1.2179309e+00
 -3.8410604e-01
  2.3147202e-01
 -1.4518851e+00
 -9.3326652e-01
 -5.2610844e-01
 -5.2253891e-02
  4.1151747e-01
 -1.9930526e+00
  6.8999869e-01
 -6.2669891e-01
  1.2420437e+00
 -1.7481505e+00
 -1.4414020e-01
  9.4411212e-01
 -3.7874788e-01
 -6.3367143e-02
 -4.5704646e-03
 -1.5201923e+00
  6.4897184e+00
  9.6161768e-02
  9.9445093e-01
 -1.7491566e+00
 -6.8361193e-01
 -6.9624805e-01
 -9.4341403e-01
 -4.7178701e-02
  3.7902272e-01
 -5.1039124e-01
  4.3489766e+00
  2.1813173e+00
  2.5711193e+00
 -3.5880044e+00
  1.5064393e+00
  2.7595892e+00
 -3.2602008e-02
 -6.9789749e-01
 -5.4537141e-01
  1.1755482e+00
 -2.5750864e-01
  1.0648022e+00
 -1.9759829e+00
 -4.1364533e-01
 -2.4515225e-01
  1.4642870e+00
 -6.4169621e-01
 -8.3266622e-01
 -1.1895577e+00
  4.7306520e-01
  1.3669278e-01
  7.9516619e-01
 -1.7854755e+00
  6.8081939e-01
  1.2966089e-01
  3.1596127e-01
 -1.4089147e+00
 -4.5387217e-01
 -1.3388628e+00
  1.0328499e+00
 -4.8905554e-01
 -8.7745011e-02
  4.5535703e+00
  8.6687641e+00
  5.9392953e-01
  4.9663007e-02
 -1.0345339e+00
 -2.4499578e+00
 -2.3015127e+00
 -2.0758801e+00
 -3.7573522e-01
  5.7275424e+00
 -1.1981298e+00
 -1.2838515e+00
  3.3373373e+00
  7.8908658e-01
  2.0022616e+00
  2.0348151e+00
  2.0374319e-02
 -1.8858733e+00
  3.9768600e+00
  1.8096976e+00
  2.3118291e-02
  1.0168771e+00
 -3.7434480e+00
  1.1902829e+00
  1.3061107e+00
  3.7265599e+00
  2.9814107e+00
  2.6534588e+00
  7.4076748e-01
  4.7367942e-01
  1.9941061e+00
 -8.6189348e-01
 -2.2066469e+00
 -2.0895791e+00
  5.2800708e-02
 -6.9385962e+00
  1.9053631e+00
  9.8359656e-01
 -1.3800132e+00
 -2.4083920e+00
  2.2625237e+00
 -1.7868440e+00
 -2.2290728e+00
 -6.4298213e-01
 -1.5145650e+00
  5.2469554e+00
 -1.3107504e+00
 -6.4085207e+00
  2.6610432e+00
 -1.3923222e+00
  1.3122537e+01
 -1.0818897e+00
 -4.8978245e-01
  8.8474190e-01
 -1.5421662e-01
  6.1147189e-01
  7.9829180e-01
 -8.0283791e-01
  2.8181789e+00
  8.4276664e-01
 -1.3397636e+00
  8.0054241e-01
 -3.5554605e+00
  1.6689758e+00
 -2.3024020e+00
 -7.1509153e-01
 -3.2207808e+00
  2.2861452e+00
 -1.9134886e+00
  6.6650969e-01
  4.0589237e+00
  2.4809797e+00
  3.1495731e+00
 -3.8755294e-02
 -1.7620460e+00
 -1.0015398e+00
 -5.2030826e-01
  6.5768147e-01
 -8.5885334e-01
 -3.2140312e-01
  2.3522704e+00
  9.9427283e-01
  7.9534017e-02
  2.5009014e-02
 -5.0800309e-02
  3.7677910e+00
  4.7786231e+00
  1.6278276e+00
 -3.6004443e-02
  2.7235937e-01
  2.7039200e-01
  1.3207796e+00
  1.2208389e+00
 -3.7727430e-01
 -3.8845396e+00
 -4.3956661e-01
  2.8312737e-01
  1.3070064e+00
  7.3077112e-02
 -6.4561015e-01
 -7.6959276e-01
 -3.6900192e-01
  2.0352897e-01
  2.5675827e-01
 -1.2438791e-01
 -6.7198712e-01
 -1.8946164e+00
 -2.3333962e+00
  4.8335012e-02
  2.1939151e-01
 -2.2001925e+00
 -1.0648539e-01
  8.0488938e-01
 -1.7318989e-01
 -6.0326332e-01
 -1.6534142e+00
 -3.6290679e+00
 -6.6289358e-02
 -1.8662395e-02
 -4.5746990e-02
 -1.8555027e+00
  8.6203152e-01
 -2.9032570e-01
  1.7081289e-01
  2.1472561e+00
  5.4670548e-01
  1.8970497e+00
  5.2496806e-02
 -3.7017431e+00
  9.1479623e-01
  1.0045091e+00
 -2.5017541e-02
  1.0134675e-01
  2.3033495e-01
  1.7349541e-01
 -1.3963869e-01
  4.7246002e-02
 -1.5994272e-01
 -9.4401591e-02
  2.0877739e-02
  2.4585469e-01
  8.0093628e-01
 -2.5446503e+00
 -1.1207186e-01
  2.3932154e+00
  6.5423615e-02
 -1.1636053e+00
  8.6513460e-02
  2.8311274e+00
 -3.3634115e-02
 -6.9723874e-01
  1.1576334e-01
 -5.6668389e-01
  1.9556965e-01
 -1.7807302e+00
 -8.6823210e-02
  9.0041101e-02
 -1.6162957e-01
  6.0548216e-01
 -1.2051325e-01
 -2.8540912e-01
  8.2097048e-01
 -8.3049824e-03
 -1.2719604e+00
  2.1402252e+00
 -3.1926274e-01
 -2.1853061e+00
  1.2474320e+00
  3.6837044e-01
 -4.3377990e-01
  2.6899261e+00
 -6.9882321e-01
  3.5454628e+00
 -1.8555331e-01
  3.7498176e-01
 -2.0851642e-01
  5.1574439e-01
 -4.8334131e-01
  7.6654486e-02
 -3.8839155e-01
  7.9909720e-02
 -9.5117009e-01
  2.2748861e-01
  3.2976511e+00
 -9.7843474e-01
 -9.0580261e-01
  4.5466723e+00
 -4.5722401e-01
 -6.1976993e-01
 -2.4219264e-01
 -8.7757939e-01
  9.1226494e-01
  1.5798392e+00
 -1.2370080e-01
  7.4330908e-01
  9.4053769e-01
  2.7628276e+00
  1.9767563e+00
  1.2064176e+00
  3.7729308e-01
  6.0101256e-02
  6.5752685e-02
 -1.0650871e+00
 -3.7574351e-01
  6.1834711e-01
 -7.3456001e-01
 -8.6778903e-01
  2.1243715e-01
 -8.7915355e-01
  9.5470798e-01
 -9.1330069e-01
 -6.9293141e-02
  2.5514099e-01
  1.5374222e-01
 -2.4675772e-01
  1.1497555e+00
 -1.1232641e+00
  9.8357725e-01
 -1.6395332e+00
  6.7810392e-01
 -4.0414372e-01
  2.2058329e-01
  6.9585824e-03
  4.7451481e-01
  1.2759246e+00
  3.4304366e-01
  5.0791574e-01
  1.2163346e+00
  1.0496244e+00
  2.9722735e-01
  4.5832404e-01
 -6.0488712e-02
 -7.8955489e-01
  2.3508935e-01
  2.3885231e+00
  2.5316092e-01
  1.8358446e+00
 -5.8710259e-01
  1.1457660e-01
 -1.1136164e-01
 -1.5409546e+00
  8.4503156e-01
 -5.2549809e-01
  5.8668222e-02
 -9.5263338e-01
  3.1515691e-01
 -1.6161195e+00
  4.1380915e-01
  4.6767136e-03
 -3.6929786e-01
 -1.1602896e+00
 -1.0701893e-01
 -1.7200264e+00
 -1.5994060e+00
  1.0580295e+00
  2.6491138e-01
  2.7995482e-01
 -1.4433445e-01
  1.8107119e-01
 -9.6420473e-01
 -9.6038955e-01
  2.3314164e+00
  1.5857978e+00
  1.9037292e+00
 -5.2661300e-01
  2.3356736e-02
 -1.4553067e-01
  4.0394667e-01
 -1.5717857e+00
  7.2916895e-01
  4.2289574e-02
  7.2748131e-01
  1.6362273e+00
  2.2242558e+00
 -2.5954452e+00
 -9.5977791e-02
 -3.2772883e-03
  2.7959567e-01
 -2.9665337e+00
 -7.2016841e-01
 -2.2396654e-01
 -5.2390558e-01
  9.7203583e-01
  2.5279051e-01
  2.3066020e-01
 -2.5040364e-01
  5.2765876e-01
 -4.1499591e-01
  8.2824177e-01
  1.3621761e+00
  2.6039922e+00
  1.2909742e-01
  3.8568420e+00
  4.0637040e+00
  1.6902214e+00
 -2.7324355e-01
 -1.3776854e-01
  1.0775203e+00
 -2.9466677e-02
 -1.6098596e-01
  8.4502354e-02
  2.5160137e-01
  6.8380445e-02
 -1.1505891e+00
 -7.6312554e-01
 -2.5830693e+00
  2.3692939e+00
 -6.5898621e-01
  7.1348649e-01
 -5.1511705e-01
 -9.5078036e-02
 -2.1176395e+00
  4.0158768e+00
 -2.3467323e-01
 -1.0901380e+00
 -2.7031982e-01
 -3.7738774e-02
 -3.8208831e-02
 -5.2382433e-01
  3.8012347e-01
 -3.7947306e-01
  1.2697402e+00
  3.0477518e-01
  2.2625167e-02
  6.7809045e-01
  2.5106939e-02
 -8.0884449e-02
 -6.0194254e-01
 -3.2768023e-01
 -2.8064775e-01
  8.9890338e-02
 -6.9879270e-01
  3.6609659e+00
  7.2899938e-01
  2.1429944e-01
  2.6474363e-01
  2.2777474e-01
 -1.4538096e+00
 -3.7261710e-01
  4.4912612e-01
  1.4227285e+00
 -2.9903719e+00
  1.2264104e+00
 -6.6468143e-01
 -1.4506391e+00
  1.1263702e+00
  9.4656423e-02
 -1.2800096e+00
 -1.0683107e+00
  1.7478110e+00
 -8.0282897e-01
  1.9296890e+00
 -2.0179164e+00
 -1.5347235e+00
 -2.0413306e+00
  1.4814053e-01
 -1.3608052e-01
  2.3076003e+00
 -4.2655399e-01
  3.0003220e-01
 -1.9449314e-01
  1.2872878e+00
 -1.3096653e+00
 -6.2660593e-01
  6.3039742e-02
  1.3571461e+00
 -1.0835574e+00
  1.0474781e+00
  1.3503549e+00
  2.2859039e+00
  9.6778351e-01
 -2.0008232e-01
  5.9939642e-02
  3.7224638e-01
  7.3337001e-01
 -6.2468797e-01
 -1.6534506e-01
  5.8066428e-02
  3.4769981e+00
  1.2055917e+00
  5.0199717e-01
  4.3729815e-01
 -1.9238209e+00
 -5.2967823e-01
 -1.5868684e+00
  1.0422475e+00
  6.0912603e-01
 -2.1431130e-01
  2.4227900e-02
  3.9973187e+00
  3.1310320e-01
  8.5916620e-01
  8.8249665e-01
  3.4549797e-01
  4.7158012e-01
  5.2380621e-01
  6.6780680e-01
  1.3745183e+00
 -2.4482603e+00
 -1.1649356e+00
  1.9128744e-01
 -4.6584827e-01
 -3.5449997e-01
 -1.5567292e+00
  8.5191697e-02
  9.4345403e-01
  3.2418144e-01
 -1.3829299e+00
 -2.7205729e+00
 -1.3937509e+00
  7.2358322e-01
 -7.1065152e-01
 -4.1540396e-01
  2.5335613e-01
 -1.9106653e-01
  1.6275053e+00
 -4.2998075e+00
 -2.3447063e+00
  4.1729215e-01
  2.5641816e+00
 -2.3704606e-01
  1.5428935e+00
  4.2961655e+00
  3.5000765e-01
 -2.5538709e+00
 -9.7916776e-01
  2.0320491e-01
  8.4756237e-01
  7.1817601e-01
  6.6732697e-02
 -2.1728790e+00
 -1.7128981e+00
 -1.5069692e+00
 -4.3283015e-01
 -6.8176085e-01
  2.0363522e+00
 -2.9387996e-01
 -1.8834621e+00
 -9.9971272e-02
 -1.5569102e+00
 -1.2986124e+00
  4.0635648e-01
  1.6415042e+00
  7.8690067e-02
 -7.6529644e-03
 -4.5307350e-01
  2.1893024e+00
 -5.7798892e-02
  1.0305772e+00
 -4.7592303e-01
  1.1728106e+00
  1.0841987e-01
 -1.9898957e+00
 -4.2954776e-01
  2.9250830e-01
  7.4623102e-01
 -1.7913815e+00
  4.7039413e-01
  1.6958442e-01
  1.0315213e+00
  9.5154309e-01
  1.1650864e+00
  1.4053311e+00
  1.1694871e+00
  9.1146536e-02
 -4.4611935e-02
 -5.2072072e-01
 -2.8929577e+00
  6.2929875e-01
  3.9180198e-01
 -1.1229371e+00
 -2.2324151e-01
 -2.8604636e-01
  7.1969998e-01
 -7.6196098e-01
  2.0105566e-01
 -4.6393698e-01
 -1.8675473e+00
 -7.5312930e-01
 -1.6043340e+00
 -3.2113749e-01
  1.4826082e-01
 -5.0569665e-01
 -1.5327263e-01
  1.0726175e+00
 -1.9334702e+00
 -1.5631701e-01
 -2.6882043e-01
  2.6169363e-01
  1.4757450e-01
  7.4091202e-01
 -1.2051831e+00
 -2.7739221e-01
  2.9286870e-01
 -5.2307379e-01
 -7.1655381e-01
 -7.9300672e-01
  7.7307642e-02
  4.6142584e-01
 -1.7834660e+00
  3.1637701e-01
 -3.3453301e-01
  1.0977527e+00
 -9.1957611e-01
  8.8220513e-01
 -4.7566694e-01
 -4.0194435e+00
 -1.1703863e-01
  5.3020298e-02
  2.1043367e+00
  1.1997919e-01
  2.9862136e-01
 -9.6303318e-03
 -2.0837104e+00
  2.1512225e-01
  3.6241274e+00
  1.8438386e+00
 -4.2188326e-01
  9.8987103e-01
  1.4911695e+00
  1.1844923e+00
 -9.2939538e-01
 -1.3560385e+00
  7.2833365e-01
  3.8521522e-01
  1.7341977e+00
 -1.4306972e+00
 -2.7472312e+00
  1.3009132e+00
  2.7913675e-01
  1.4186852e-01
 -1.5601471e-01
 -4.2620936e-01
 -1.2332888e-02
  3.2465473e-02
 -2.8502984e+00
  1.0461636e+00
  5.6468660e-01
 -3.3663201e-01
 -1.9966425e+00
 -3.3635375e-01
 -1.6682036e+00
  8.5449368e-01
  1.9738731e+00
  1.7053695e+00
  1.1315917e-02
  2.4449015e+00
  3.6135046e+00
  3.0982571e+00
  9.3136795e-02
  4.0125484e+00
  2.9367131e-01
 -3.7080237e-01
 -5.3473276e-01
 -2.1138471e-01
  3.8193843e-01
 -3.7572271e-01
 -1.2767711e+00
 -4.9110693e-01
 -1.5814748e+00
 -2.3253453e-01
 -2.6243012e-02
 -1.3664030e+00
 -4.5597326e-02
 -2.5748226e-01
 -3.1324928e+00
  1.1165518e-01
  2.9010663e+00
  3.2043602e+00
  1.2368284e+00
 -3.2890356e+00
  1.1334726e+00
  2.1664040e+00
 -6.1799490e-01
 -7.3847246e-01
 -7.3609746e-01
  1.3685077e+00
 -3.3373934e-01
 -9.9201000e-01
  3.5977820e-01
  2.0191565e+00
 -6.9481349e-01
  4.5233955e+00
 -1.6957575e-01
 -2.1362598e-01
 -7.4449277e-01
 -1.1461028e-01
 -1.2924732e+00
 -2.9780068e+00
 -1.0348130e+00
  1.4833255e-01
  8.8588405e-01
  1.1574169e+00
 -8.2764494e-01
 -7.3698676e-01
  8.2449126e-01
  1.9674055e-01
 -7.1444863e-01
 -1.0051983e-01
  2.5614870e+00
  8.4830850e-02
  5.3912710e-02
 -3.4891048e-01
  1.1606690e-01
  2.5104013e-01
  6.1781317e-01
 -1.6639066e-01
  4.9096072e-01
 -2.1105645e+00
 -1.9415028e+00
  1.2241074e+00
 -1.8148933e-01
 -2.9419723e+00
  6.1014360e-01
 -3.5416770e+00
 -3.6346287e-01
  5.0299323e-01
  7.6557273e-01
 -5.9460235e-01
 -4.1510639e-01
  2.9030642e-02
 -4.9646518e-01
 -1.9702125e+00
 -6.5590715e-01
  6.6741794e-01
  1.3652134e+00
  5.6523585e-01
 -5.1743686e-01
  1.2678610e-01
  9.3951005e-01
  3.4019873e-01
 -3.1240425e+00
 -1.8015594e+00
  1.3445494e+00
 -1.0476913e+00
  5.5642909e-01
  2.9691356e-01
 -1.4353392e+00
 -4.6437316e+00
 -8.4183705e-01
  1.2281295e+00
 -1.3142837e+00
  2.2159500e+00
  9.8545319e-01
 -2.2176211e+00
 -2.5026470e-01
  2.6396735e+00
 -1.6542817e+00
  5.8059919e-01
  1.2230781e+00
  5.7678901e-02
 -1.1991622e+00
 -5.6526405e-01
  5.8633244e-01
  4.0572138e+00
 -9.6850814e-03
  1.9539465e+00
 -2.1918733e+00
  5.2430612e-01
 -3.2402807e-01
 -2.6823153e+00
  8.7806410e-01
 -3.1740704e-01
 -1.7167329e+00
  5.2251905e-01
 -1.5266806e-01
 -4.6311283e-01
  9.0799361e-01
 -6.6230902e-03
  6.5166730e-01
 -3.8289362e-01
 -8.4069604e-01
 -1.5976480e-01
  5.4919600e-01
  4.0888343e+00
  9.7637236e-02
  1.2469121e+00
  6.3771345e-02
 -4.9341232e-01
  4.0893543e-01
  2.1182631e-01
  9.3093686e-02
 -1.7000536e+00
  1.4474624e-02
  5.2897722e-01
  2.6240485e+00
  5.2192605e-01
 -3.2294397e+00
  2.1724176e+00
 -6.7064777e-02
 -5.0621759e-02
 -7.1609175e-01
  1.0290394e+00
 -1.7527750e+00
  1.2800626e+00
 -2.4432893e+00
 -3.4104455e+00
  3.7183261e-01
  7.0042300e-01
  3.3601394e-01
  1.0008188e+00
 -2.8231150e-01
 -4.2563081e-02
 -6.2724501e-01
 -1.8011458e+00
 -1.1464536e-01
 -2.0692201e+00
 -8.5353845e-01
 -2.7999153e+00
  6.5928280e-01
  3.6372757e-01
 -2.2379038e+00
 -1.3665353e+00
  1.6367466e+00
 -7.0398919e-02
 -3.0310002e-01
 -1.2032623e+00
 -2.4108756e+00
 -3.1276330e-01
  5.4818434e-01
 -7.6300979e-02
 -2.3098609e+00
 -1.4083998e+00
 -5.5232644e-01
 -1.3846755e+00
 -7.8833628e-01
 -3.3606567e+00
 -1.8494637e+00
  5.3895545e-01
 -1.1475823e+00
 -1.0703074e+00
  9.6025431e-01
 -6.8584248e-02
  1.0750570e-01
 -5.0393581e-02
  1.2811410e-02
 -3.9942738e-01
  2.4401458e-01
  3.7741184e+00
  8.2336445e+00
  7.8765625e-01
 -9.4923007e-01
  7.3241162e+00
  5.7749555e-02
  5.3501928e-01
 -3.0286904e-02
  7.3135585e-01
 -1.9746565e+00
  5.4519582e-01
  1.2655463e+00
 -5.5688888e-01
 -7.4243510e-01
 -3.2657444e-01
 -8.1079417e-01
 -8.0980606e+00
 -4.8109415e-01
  2.8431611e+00
  3.2412311e-01
  1.3341414e+00
  9.8730022e-01
 -1.2655764e+00
 -2.6467946e+00
  3.0455005e-01
  1.0376339e+00
  8.1809288e-01
 -1.7441366e+00
  1.7425889e+00
 -3.0573028e-01
 -3.6821750e-01
 -2.3899508e+00
  9.9841726e-01
  1.0075182e+00
 -3.2144582e+00
 -6.3427216e-01
 -4.1374450e+00
  5.7073426e-01
  9.3437976e-01
 -1.2127443e-01
 -8.0077332e-01
  3.2270068e-01
  1.5868437e-02
  5.1330132e+00
  3.8635352e+00
  8.8017724e-02
  1.0808165e+00
  6.4144626e+00
 -9.6834439e-01
  1.4702992e-01
  3.1499074e+00
 -1.9139081e+00
 -2.1757658e+00
 -1.6067040e+00
 -4.0696359e+00
  8.1623173e+00
 -6.6606283e-01
 -2.3001482e-01
  9.9580921e-03
  7.8262335e-01
 -9.0430021e-01
 -1.3525909e-01
 -3.3641169e+00
 -4.1635266e-01
 -2.5043848e-01
 -4.8510692e-01
 -2.8731353e+00
 -6.1871529e-01
 -8.6732060e-01
 -1.2683282e+00
  2.5869513e-02
 -2.7523294e-01
  1.0808089e+00
 -3.9798665e-01
  9.5364332e-01
  7.3371333e-01
 -5.0252125e-02
  1.1423148e+00
  1.5835297e-01
 -1.7632374e-01
  1.2207320e+00
 -1.8355199e+00
 -5.7462490e-01
  7.5393982e-02
 -3.8624361e-02
 -8.2767385e-01
 -7.3048764e-01
  1.3784076e+00
  3.8154359e+00
  4.2356238e-01
  6.2599027e-01
  2.6021845e+00
  2.7590923e-03
  5.0640076e-01
 -2.1987367e+00
  1.3317358e-01
 -1.7847292e+00
  9.5023865e-01
 -1.1137660e+00
 -5.3023858e+00
  2.1744127e+00
  3.7059318e-02
  1.8772618e+00
 -5.9707500e-02
 -7.5988138e-01
 -2.3908670e+00
  2.7135503e-01
  1.3188137e-01
  3.6060539e-01
  7.7609187e-03
  2.0053117e+00
  1.3688397e+00
  4.9439448e-01
 -5.4845262e+00
  1.5904707e+00
 -1.2349763e+00
  7.0615165e-02
  1.6730422e+00
 -1.2734275e+00
 -6.7075741e-01
  2.1915488e-01
  1.7359583e+00
  2.4725004e-01
 -3.0744222e-01
 -2.0435148e-01
  8.8332045e-01
  1.2852725e+00
 -4.2496095e+00
 -1.2186126e+00
  1.4139221e+00
 -6.3100219e-01
  2.1673727e+00
 -1.9708180e+00
 -2.4410991e-01
 -9.2014596e-02
  1.3488734e+00
 -2.0057399e+00
  1.9307590e+00
 -6.2011804e-02
  1.4832163e+00
  2.5852485e+00
  2.1766922e+00
 -4.5675814e-01
  9.3269110e-02
  1.8348467e+00
  5.1854134e-01
  2.5851336e+00
  3.6117973e+00
 -8.1706464e-02
 -1.0481359e-02
 -7.8712785e-01
 -5.9259641e-01
  1.2723923e+00
  3.2569551e-01
 -5.5347264e-01
 -3.7946361e-01
  7.5954241e-01
 -1.5922322e+00
 -1.2923964e+00
  4.5658884e+00
  4.7945747e+00
  4.8887210e+00
 -1.5281073e+00
  4.3497184e-01
  1.6634318e+00
  2.2491074e-01
 -2.9398993e-01
 -3.7966722e-01
  8.9206070e-01
 -7.2598457e-01
 -2.9420912e-01
 -5.1903164e-01
 -2.3855028e+00
  9.9871695e-01
  9.1720414e-01
  3.9429370e-01
 -1.3228458e-01
  4.0100890e-01
 -2.4727111e-01
 -1.9337469e+00
  1.0005765e+00
 -1.7453471e-01
  4.8252296e-01
  4.0666670e-01
  1.5452238e+00
 -6.4286119e-01
 -5.3176694e+00
 -6.1115336e-01
 -1.6073133e-01
 -6.7021900e-01
 -2.0877618e-01
 -2.3420729e-01
 -4.5073781e+00
 -1.6121451e+00
 -2.3119411e-01
 -4.7774282e+00
  1.7541132e+00
 -2.7520664e+00
 -7.0171374e-01
  4.0545434e-02
 -1.5356364e+00
 -1.2017198e+00
 -1.6060795e+00
  3.5171103e-01
  1.1716157e+00
 -8.2924455e-01
  4.2393374e-01
 -1.7009276e-01
  2.7031343e+00
  6.1723298e-01
 -3.5835591e-01
 -1.3003273e-01
 -2.5527880e-01
  9.2829317e-01
  1.0160143e+00
  1.7679055e+00
 -6.6167182e-01
  1.4946601e-01
  4.3202528e-01
 -1.5000516e+00
  5.9943795e-01
 -3.6159143e-02
 -2.1689901e-01
 -1.2586820e+00
  3.6922964e-01
 -4.7856125e-01
  2.6707614e-02
  8.7537956e-01
 -1.0248977e+00
 -1.1954088e+00
  8.0765361e-01
  2.5068945e-01
 -6.2002935e-02
  1.5561711e+00
 -7.6635338e-02
  2.9323521e-01
  1.3828977e+00
  1.2071158e+00
 -3.9339507e-01
  4.8688909e-01
  6.1193919e-01
 -9.0716243e-02
  1.2170072e+00
 -4.3767095e-01
  1.2648001e+00
 -1.4008530e+00
  1.7774525e+00
 -7.4600816e-01
  3.3169377e+00
 -1.6187279e+00
 -3.6697981e-01
 -4.8213840e-01
  2.4484248e-01
  1.2378789e+00
 -5.7014340e-01
  1.8437550e+00
  1.8816360e+00
  3.9793959e-01
  7.1326029e-01
  2.0746324e+00
 -3.5563561e-01
 -1.4610138e+00
 -8.3623952e-01
  3.3978060e-01
  1.3748050e+00
 -1.8751287e+00
 -7.8580487e-01
  1.1883792e+00
 -1.2262868e+00
  6.2291306e-01
 -6.1111242e-01
  2.0284488e+00
 -6.7038113e-01
 -5.7794728e+00
  2.4686652e-01
 -9.6525687e-01
  2.2972517e+00
 -2.8387952e+00
 -3.0227292e+00
 -1.5955908e+00
  3.2922915e-01
  2.8636083e-01
  1.4230672e+00
  8.2737327e-02
 -2.7608669e-01
 -3.2443507e+00
 -8.4654754e-01
  8.7235749e-01
 -4.1003388e-01
  2.0970681e+00
 -3.4356526e-01
 -4.6820500e-01
  4.9475522e+00
 -4.4462091e-01
 -1.7827055e+00
  1.2582366e+00
  4.8032379e+00
 -1.2365860e-01
 -3.3313745e-01
  5.1463115e-01
  6.2194967e-01
 -1.0954444e+00
  1.8651956e+00
 -3.2957227e+00
 -7.2917950e-01
 -5.0136471e-01
 -2.2639694e+00
  3.3537955e+00
  2.8614065e-01
  1.4549410e+00
 -4.6732008e-01
 -1.6686748e+00
 -2.6083097e-01
 -6.1787558e-01
 -2.1604040e+00
  3.1022172e+00
  7.5577307e-01
 -4.4579771e-01
  1.1272222e+00
 -4.6062866e-01
 -4.0599670e+00
  8.9975154e-01
  9.1668123e-01
  3.8219807e-01
  1.8039225e+00
  1.5692449e+00
 -3.1328893e-01
  1.2289086e-01
 -4.0721518e-01
 -3.3867183e-01
 -2.6333740e+00
 -4.8598298e-01
  1.3947684e+00
 -2.8688219e-01
  1.1124423e+00
 -2.5004891e-01
  2.1562353e-01
 -2.5669047e-01
 -1.0501331e+00
 -5.6064534e-01
 -3.3125520e+00
  3.4127829e+00
  1.1952993e+00
 -1.0656296e-01
  1.7643497e+00
 -1.6127336e+00
  2.3478080e-01
  8.9950413e-01
 -1.1624103e-01
  4.0802959e-01
  1.4064356e+00
  1.7626414e+00
  1.8977100e+00
  4.5833216e+00
  7.0921316e+00
 -1.0170220e+00
  4.6227393e-01
 -5.9892493e-01
 -7.0024061e-01
 -4.2441249e-01
  2.1326861e-01
  3.3428833e-01
 -5.7940942e-01
 -7.9348040e-01
 -1.3619841e+00
  1.9683120e-01
 -2.4607699e+00
  9.7308010e-01
  7.8833658e-01
  2.3468795e-01
  4.8031420e-02
 -2.6554103e+00
  1.5012005e-01
 -3.8533316e+00
  2.3249915e+00
  1.3718807e+00
 -1.2603265e+00
  4.0442672e-02
 -9.5040143e-01
  4.5549190e-01
  4.7289070e-01
  2.0978154e-01
  5.7360739e-01
  3.4336427e-01
  1.2216125e+00
  1.1307869e-01
  1.3194014e+00
  5.9485537e-01
  2.2294834e-01
 -4.0526071e-01
  4.9457848e-02
 -6.1825484e-01
 -4.6631625e-01
 -8.0046743e-02
 -4.9279962e-02
  2.3031758e-01
 -7.0014149e-01
 -1.3840969e-01
 -6.6976689e-02
  2.4494748e-03
  1.1518400e+00
  4.7353095e-01
  8.5583121e-01
  2.3152921e+00
  2.9230905e+00
 -3.1806090e-01
  8.1764114e-01
  3.4825137e-01
  3.0421397e-01
  7.5516440e-02
 -7.6893234e-01
 -2.2046976e-03
  2.6449777e-02
  7.5697941e-01
 -2.7736986e+00
 -4.1977043e+00
  2.8949430e+00
  2.1906304e+00
 -7.9056334e-01
 -3.6925244e+00
  3.1577342e+00
  3.9225268e+00
  1.6654727e+00
 -7.6075840e-01
  2.8193314e+00
 -5.6669700e-01
 -1.7992151e+00
  4.2631140e-01
 -2.3247941e-01
  2.1182811e+00
 -7.8376895e-01
  2.9406810e-01
  1.4694257e+00
  2.4995406e+00
  1.9158024e-01
 -1.1703513e+00
  1.9468197e+00
 -6.8958271e-01
  7.5767940e-01
  4.2640715e+00
 -5.3897519e+00
  1.2635372e+00
  1.9584075e+00
  9.9799675e-01
 -9.7250730e-01
  1.9308100e+00
 -1.7520136e+00
  2.4140336e-01
 -5.7881441e-02
 -6.1620629e-01
 -1.0481076e+00
  1.3234239e+00
  1.2795196e-01
  1.4615909e+00
 -3.8717076e-01
 -5.5745310e-01
 -4.4922677e-01
 -6.9202602e-01
  2.7166402e-01
 -2.4291496e-03
  2.3839368e-02
  5.4422379e-01
 -4.4738565e-02
  3.0930494e-03
  3.2740271e-01
 -2.5041288e-01
 -9.7301558e-02
  1.0648967e+00
  1.1964889e+00
 -5.7750946e-01
 -9.5994972e-02
 -2.0802444e-01
 -1.9441268e-01
  4.6235427e-01
 -8.7779802e-01
 -2.5162969e-02
  5.3140527e-01
 -1.3654159e-01
  2.2541128e-01
  3.2434430e-02
 -5.5412132e-01
  2.2144678e-01
  1.0629521e-01
 -2.3715336e-02
  4.4394881e-02
 -6.4571089e-01
 -6.4276713e-01
 -1.6356629e+00
 -8.2351077e-01
  4.5253232e-01
  4.4380462e-01
  2.3412512e-01
 -5.0900090e-01
  1.9214122e-01
 -5.9381461e-01
 -5.9860569e-01
 -3.9479190e-01
  1.6191452e+00
 -6.5671706e-01
  1.7133973e+00
 -1.0020478e+00
 -5.4393375e-01
  6.0858732e-01
 -1.6008396e-01
  4.9088806e-01
 -1.2186686e+00
  2.3541903e-01
  1.1422336e+00
 -2.2079399e+00
  3.0396378e-01
  5.2771980e-01
 -1.2219734e+00
 -2.8617432e+00
 -4.6145895e-01
 -3.9543474e-01
 -2.8495446e-01
  6.3175082e-01
  1.4172333e+00
 -2.6547354e-01
  5.3832084e-01
 -4.1120401e-01
 -6.9322586e-01
  6.9630116e-01
 -1.1524533e-01
 -6.2472039e-01
  3.8796225e-01
  1.4644203e+00
 -4.3294597e+00
 -1.7265885e-01
  1.3913808e-02
 -1.2750651e+00
 -7.0465446e-01
 -4.3611789e+00
 -1.0143723e+00
 -4.5800936e-01
 -9.4319850e-02
 -1.7928241e+00
 -7.6728368e-01
 -4.3742937e-01
  1.5799490e-01
  3.0911291e-01
 -4.0711144e-01
  9.1494769e-01
  2.1090071e-01
  1.8812869e-01
  1.0910865e-01
 -6.9147313e-01
  1.2622510e+00
 -2.4288736e-02
  3.8630739e-02
  1.3239112e+00
 -4.8354155e-01
 -4.9589672e-03
  2.4672900e-01
  7.1446830e-01
 -2.7427623e-01
  2.7003365e+00
 -1.5992026e+00
 -5.9762371e-01
  8.4594172e-01
  2.6142607e+00
  1.5494819e+00
 -1.6237530e+00
  6.0051388e-01
 -2.1593623e-01
  1.9431170e+00
  1.7448195e+00
  2.9713926e+00
 -3.0289409e+00
  9.5608789e-01
 -2.8558603e-01
  4.7419274e-01
 -1.4243643e+00
  3.3109432e-01
 -1.2093618e+00
  1.5838107e+00
 -2.3781300e+00
 -5.5187640e+00
  1.1279589e+00
 -3.1313866e-01
  1.8055317e-01
 -8.5320389e-01
  2.6706059e+00
  2.3843941e-01
  1.5485176e-01
  3.8094097e-01
 -1.4395547e+00
  3.2481866e+00
  3.9462137e-01
 -4.1453376e-02
  3.0313104e-01
  1.7887704e+00
 -2.5679475e-01
  8.5095906e-01
  2.0051215e-02
 -7.6369363e-01
 -5.1132673e-01
 -1.3978422e-01
  1.4737206e+00
  1.6898946e+00
 -8.6329728e-02
 -1.3360471e+00
  3.4318095e-01
 -5.1742602e-02
  3.0600005e-01
 -1.0536712e-01
  9.3486249e-01
 -5.9720093e-01
  4.5862728e-01
 -1.4364249e-01
  6.2869787e-01
 -3.1081846e-02
 -3.5368285e-01
 -2.0496283e-01
 -2.3049515e-01
  8.4968978e-01
 -4.5565823e-01
  7.5269574e-01
 -1.0006925e-01
  3.0185980e-01
 -6.6618007e-01
  1.2149429e+00
  3.7481347e-01
  1.2911726e+00
  8.4288430e-01
 -2.1758637e-01
  8.5418381e-02
 -1.9121152e-01
  5.6058657e-01
 -7.3419213e-01
 -5.2302331e-01
 -1.2758065e+00
  8.0253762e-01
  3.1600049e-01
 -1.2612913e+00
  2.2748241e-01
  2.0276538e-01
 -4.4549963e-01
 -2.1302323e+00
 -1.0225583e+00
 -1.2723464e+00
  3.4001786e-01
 -3.2441753e-01
 -1.3317493e+00
  1.3156871e+00
 -3.1464645e-01
 -8.3567858e-01
  6.7333949e-01
 -2.9843140e-01
  4.0688772e-02
 -5.5043769e-01
 -2.4626231e+00
 -6.8543983e-01
  1.9606130e-01
  2.4701271e-02
  3.7962151e-01
 -1.7967548e+00
 -1.2401369e+00
  4.8757258e-01
 -5.5124205e-01
 -3.7473774e-01
  8.5287291e-01
  2.5502539e-01
  2.6480770e-01
  1.2754886e+00
  2.3017778e+00
 -8.0893224e-01
 -1.4140591e-01
 -2.3297949e-01
  1.0574220e+00
 -1.0721411e+00
 -1.1221954e+00
  4.7346327e-01
  1.0417250e+00
  3.6177647e+00
 -1.5820336e-02
 -3.9526658e+00
 -6.9133568e-01
 -6.3427947e-02
 -8.4274852e-01
 -1.9785113e+00
 -2.1264990e-01
  1.8181479e+00
 -9.3996704e-01
 -4.1902852e-01
 -2.2397814e+00
 -1.0877187e+00
  1.1306884e+00
 -1.3927335e+00
 -2.0202443e-01
 -2.4144483e-01
  4.3735161e-01
 -1.4300461e-01
  2.0362961e-01
  6.6165215e-01
  1.4136492e+00
 -4.6983138e-01
 -5.0463283e-01
  3.3531100e-01
 -1.5457396e-01
 -8.7443364e-01
 -3.5134089e-01
 -2.4697230e+00
 -2.0488896e+00
  1.1817360e+00
  7.8456295e-01
  7.0795751e-01
  2.9769115e+00
  3.3656478e-01
  1.3758932e-01
  1.6511024e+00
 -8.0828470e-01
  2.7580349e-02
  1.6721924e-01
  8.2820404e-01
  1.7525959e+00
  6.0182385e-02
 -9.6140689e-01
  1.3586544e+00
  1.4719804e-01
  9.2194301e-01
  1.1354983e+00
 -1.6862746e-01
  1.3318042e+00
  5.5225449e+00
 -1.3468572e+00
 -6.4203840e-01
  5.7019174e-01
 -3.2537754e+00
 -1.3313652e+00
 -3.4527093e-01
  2.4672613e-02
 -1.8508266e-01
 -4.9524152e-01
  3.3834085e+00
 -3.3720031e-01
  1.8502421e+00
 -2.3399134e+00
  3.3605165e+00
  2.0398295e+00
 -2.6719818e+00
  3.9603031e+00
  4.0487236e-01
  3.7735787e-01
  2.3418346e-01
 -8.0110276e-01
 -5.2499884e-01
 -1.9480016e+00
  2.4212323e-01
  2.0033503e+00
  1.1355320e+00
 -2.2373681e+00
  1.1568263e+00
 -1.8068559e-01
  2.7123215e+00
 -3.9627657e+00
  2.0126228e+00
  1.1255959e+00
  7.0350818e-02
 -2.5614355e+00
 -4.4713411e+00
  3.2633334e-01
  8.0277187e-01
 -6.7384177e-01
  2.6072869e-01
  7.4182415e-01
  9.7511351e-01
  2.6131179e+00
 -1.8061366e+00
  5.3481311e-01
 -2.3618010e-01
  2.7320033e-01
  5.1027209e-01
  8.1678092e-01
 -8.1976753e-01
 -4.5442560e-01
  3.0885556e-01
  1.0625319e+00
  6.8167371e-01
  1.4735810e+00
  2.2940583e+00
 -4.3505616e+00
 -2.1764796e+00
 -8.5489340e+00
 -6.6439581e-01
  8.4898120e-01
 -7.8562587e-01
  1.3306100e+00
 -3.5913812e-03
  1.9341633e+00
 -3.2368603e+00
  1.6704503e-02
 -3.5792068e-01
  1.4118057e-01
 -7.4062131e-02
 -7.1464740e-02
 -3.8295192e-01
 -1.8407999e-01
 -1.0931467e+00
 -6.1499631e-01
  2.6668838e-01
 -5.5021238e-01
  2.0690763e+00
  2.3553570e-01
 -7.9370417e-02
 -1.5684432e+00
 -1.0169077e+00
  2.4807043e-03
  5.0587332e-01
 -8.6813605e-01
 -1.0970801e+00
  2.6857108e-04
 -1.6000128e+00
  1.2425318e+00
 -4.0263411e-01
 -7.7258945e-01
  4.0103251e-01
  9.7291338e-01
  1.2325934e+00
  1.4856161e-01
  1.3892046e-01
 -1.0952662e+00
 -7.6131004e-01
 -1.6263934e+00
 -4.8539943e-01
 -2.7223547e+00
 -1.9143540e-01
 -1.5247799e+00
  1.2441917e-01
 -6.7363787e-01
 -1.6493614e+00
 -8.5580665e-01
  4.4798064e-01
  6.4094836e-01
  1.7513576e-01
  1.0095649e+00
  1.0592119e+00
  3.1108019e-01
  1.3209596e+00
 -5.6314211e+00
 -1.1860930e-01
  2.0284836e+00
 -7.3716295e-01
  1.4514265e+00
 -1.3878185e+00
 -6.1659135e-02
 -9.3880072e-02
  9.9345639e-02
  9.7258091e-02
 -2.4363687e+00
  5.2625692e-01
  2.0257318e+00
 -2.4617516e-01
  1.0664538e-02
  1.5213618e-01
 -5.7467598e-01
  1.5233172e+00
  9.6294928e-01
 -4.9765494e-01
  3.8977271e-01
 -4.1542026e-01
 -4.1222674e-01
 -1.1289918e-01
 -5.5457836e-01
  3.5620162e+00
  2.0877488e+00
  5.5765736e-01
  3.5023031e+00
 -2.4004184e-01
  5.9478915e-01
  7.5056261e-01
 -2.3561053e-01
 -5.3916019e-01
  6.4106447e-01
  3.2423985e+00
  2.3587823e+00
  6.2338966e-01
 -5.3647649e-01
  2.9624546e+00
  3.7289854e-02
 -5.3753066e-01
  6.9368291e-01
  1.3819255e+00
  6.9182080e-01
  2.2092466e+00
  6.2361610e-01
  5.2895653e-01
 -1.4014236e+00
  1.9341401e+00
  1.1184525e+00
  5.6018627e-01
 -1.6832185e+00
  2.2811218e-01
  5.2676052e-01
  2.4677254e-01
 -3.2105219e+00
 -3.9179370e+00
  3.2434225e-01
 -1.2538421e+00
  1.2222642e+00
  2.2064931e+00
 -4.3698940e-01
  1.3313940e+00
 -3.5881197e-01
  1.1085793e+00
 -8.9168912e-01
  3.3872327e-01
 -1.6919965e-01
  1.3996258e-01
  4.7187385e-01
 -4.8649237e-01
 -3.4970361e-01
 -1.3377202e-01
 -2.1886313e-01
  5.2404804e+00
 -5.5636591e-01
  4.4697892e-02
  6.0316205e-01
  2.1466437e-01
  1.3609245e-01
 -3.8865283e-01
  3.1247023e-01
  6.3310599e-01
  5.7178277e-01
  5.1047421e-01
  9.3041873e-01
 -4.1825252e+00
 -4.0965323e+00
 -1.0570738e-01
 -2.4291460e-01
 -4.7605720e-01
  1.1886870e+00
  1.4257462e+00
 -1.1126297e-01
  2.5396499e-01
 -9.8386741e-01
 -1.2413769e+00
  1.3394254e-01
  7.0366699e-01
  3.7367091e+00
  3.1431252e-01
  1.2439595e+00
 -1.1470169e+00
 -6.4542770e-01
  6.2435353e-01
  5.0290120e-01
  3.1554582e+00
 -1.0049789e+00
  2.1544955e+00
  7.4123389e-01
  3.2011053e-01
  6.2769163e-01
  2.5973518e+00
 -7.9096007e-01
 -7.1896708e-01
 -1.4207165e+00
  9.9833375e-01
 -3.2202044e-01
 -9.0838335e-02
 -1.4953713e+00
 -1.0065225e-01
 -8.4771818e-01
 -1.6271417e+00
  4.4300854e-01
 -3.0657005e-01
 -1.0276271e+00
 -3.6452499e-01
 -8.5791051e-02
 -2.1617520e-01
 -1.2111615e+00
 -1.0772183e+00
 -4.1968688e-01
  1.2871165e+00
 -4.6299851e-01
  3.8990930e-01
 -1.6128975e-01
 -9.4145703e-01
  6.5580261e-01
 -1.3374153e+00
  3.6525774e-01
 -1.4906456e+00
 -1.9107187e+00
  2.6088977e-01
 -3.1355047e-01
 -1.5543488e+00
 -9.2748098e-02
 -5.8441436e-01
  4.5363462e-01
 -7.4875140e-01
 -1.0439848e+00
 -7.1506763e-01
 -3.9652352e+00
  9.1594428e-01
  3.1407943e+00
 -2.4288046e+00
  2.3003189e-02
  2.3978577e+00
 -9.1462120e-02
  7.0365852e-01
 -5.3206766e-01
 -1.8446096e+00
 -1.4676570e+00
 -3.7879639e+00
  4.4266006e-01
 -1.3101540e+00
 -9.6465141e-02
 -1.7162177e-01
  3.4076211e+00
  1.8465381e+00
  9.0306598e-01
 -6.9537485e-01
  1.3745944e+00
  1.7385511e-01
  2.6957032e-01
 -7.2326529e-01
 -3.2956469e-01
  7.3909550e+00
  5.4605246e-02
  3.5185389e-02
 -1.6304227e+00
  2.4475441e+00
  7.1521401e-01
  6.1294347e-01
 -8.9227992e-01
 -1.4924008e+00
 -1.7720827e+00
 -1.6116338e+00
 -1.6632140e+00
  2.6783841e+00
 -1.0973151e-01
  1.2547563e+00
 -3.4441453e-01
 -5.4342085e-03
  2.3168695e-01
  2.9736683e-01
 -2.6056039e-01
  1.5855474e+00
 -5.0247163e-01
 -9.2702085e-01
  1.7518868e-01
 -2.1032843e-01
 -9.3116663e-02
  6.4615071e-01
  2.9340792e-01
 -9.0064961e-01
 -1.8931340e+00
  3.2004076e-01
 -1.9506010e-01
 -1.3371640e-01
  4.6481216e-01
  8.1803477e-01
  2.3315977e-01
 -6.0165592e-02
 -2.1815863e+00
 -4.9981809e-01
 -5.6887597e-01
  2.1880287e-01
  1.1765002e+00
 -1.0176712e+00
 -1.3037027e+00
 -4.9150363e-01
  1.4887328e+00
  3.3363050e-01
  7.8222162e-01
 -4.3126911e-02
 -1.7387377e+00
 -1.0244200e-01
  9.1539264e-01
 -4.0541064e-02
  2.7630827e+00
 -1.2182192e-01
 -1.8444633e+00
 -2.8467133e+00
 -1.6018155e+00
  4.4572808e-02
 -7.8567499e-01
  6.7090458e-01
  5.0451815e-01
  1.6145793e+00
 -1.9305204e+00
 -1.7575152e+00
 -7.9526198e-01
  6.1119848e-01
 -1.1073731e-01
  1.5341040e-01
 -6.5454111e-02
  1.7111589e+00
  9.5859393e-02
 -1.4153360e+00
 -6.7726046e-01
  1.8416611e+00
 -3.1013434e+00
  1.0986087e+00
 -1.6161488e+00
  1.4707288e-01
  4.4677493e-01
 -2.8880990e-01
 -8.8180918e-01
 -1.6624407e+00
  1.6988760e-01
  6.3832314e-03
  5.8139795e-01
  9.1476589e-02
 -1.0568945e+00
 -6.8679482e-01
  2.1118830e-01
  4.2265993e-01
 -1.1083111e+00
 -1.6249468e+00
 -4.2442790e-01
 -1.4843343e-01
 -3.3744428e-01
  1.7333949e+00
 -2.2864519e-01
  1.6608715e-01
  1.1074140e+00
  5.9066629e-01
  1.8415974e-01
  1.0857340e-02
  1.5349014e+00
  6.7777842e-01
 -1.2485940e+00
 -1.2190084e+00
  1.9411337e+00
  2.0784289e-01
  2.2921395e+00
 -5.8180147e-01
 -3.0668149e-02
 -1.3958548e+00
  3.9107651e-01
  1.8951595e+00
 -6.1189240e-01
  9.0707117e-01
 -1.4191206e-01
 -3.2376632e-01
 -4.9059156e-01
 -1.8905699e-01
  1.9476677e+00
 -1.6905483e-02
  9.0450138e-01
  9.2303330e-01
  5.7427913e-01
 -6.5851865e+00
 -7.4790311e-01
 -4.7063613e-01
  2.3076665e-02
 -1.1694225e-01
 -1.9567738e+00
  9.1851377e-01
 -9.7343469e-01
  5.8458173e-01
 -1.7965935e+00
 -2.6376543e+00
  1.1467860e+00
  7.3204178e-01
 -3.8984547e+00
 -3.1562071e+00
 -3.5172988e-02
 -1.4405779e+00
  1.3152179e+00
  2.8226981e+00
 -6.2661445e-01
  2.2993772e-01
 -9.7802758e-01
 -9.6541065e-01
 -8.4939718e-01
  3.2761045e-02
 -1.8604494e+00
 -8.8111600e-03
  3.4452453e-01
  2.8047863e-01
  1.4736971e-01
 -2.3717759e+00
  2.5017126e+00
  1.7583688e+00
 -2.5343591e-01
  5.9452760e-01
 -7.3982078e-01
  3.0710870e-01
  1.4979117e-01
 -9.5595258e-01
 -6.6930145e-01
  3.3274574e+00
  4.2814144e-01
 -1.0050067e+00
 -2.7697766e+00
  5.0641596e-01
 -8.3046222e-01
 -4.2739534e+00
  3.4889609e-01
  1.4740108e-01
  2.7272978e+00
  1.2142227e+00
  6.5329295e-01
 -2.8471383e-01
  9.3036926e-01
  9.0042758e-01
  2.8771999e-01
  6.0873604e-01
 -1.5521038e+00
 -2.7150497e+00
 -4.6014342e-01
  3.7743163e-01
  2.9731402e-01
  1.8637463e+00
 -9.2907953e-01
 -2.0290031e+00
  2.2224547e-01
  1.1840862e+00
  2.8495625e-01
 -8.7262022e-01
 -5.0667733e-01
  3.4237283e-01
  6.1903906e-01
 -2.6765284e-01
 -9.1848272e-01
  7.0311809e-01
 -2.0514351e-01
 -2.8228718e-01
  7.1189833e-01
  4.4352800e-02
 -1.3354905e+00
  1.5656382e-01
 -6.5743411e-01
  1.3587765e+00
  1.6652951e+00
 -6.1208647e-01
  6.2756717e-02
 -1.3489231e-01
  1.4374137e-01
 -5.2391481e-01
  5.4834604e-01
  7.7703439e-02
  9.1286957e-01
 -6.3573521e-01
  4.5889562e-01
 -5.4076338e-01
  6.7132753e-01
  2.0356469e-01
 -1.8537201e-01
  7.4466389e-01
 -1.5891287e-01
 -8.9501977e-01
 -4.6998391e-01
  5.4360455e-01
 -2.8228113e-01
  4.0001497e+00
  8.2671952e-01
 -7.6616250e-02
  1.5058692e-01
  6.8645704e-01
 -9.5947468e-01
  4.2847902e-01
 -7.7469051e-01
  2.8245333e-01
  6.9488031e-01
  1.2460157e+00
  9.8697841e-01
  5.5709797e-01
 -2.0530669e-01
 -1.5140209e-01
 -3.3343703e-02
 -3.3085573e-01
  8.5056156e-01
 -7.9877809e-02
 -3.4686008e-01
  2.1417391e-01
 -2.2077678e-01
 -9.4427824e-02
 -1.1064005e+00
 -5.4775083e-01
 -2.0028880e-01
 -3.6513701e-02
 -5.9937990e-01
 -4.1643071e-01
  1.0898769e+00
 -7.6274276e-02
 -1.6923320e+00
  4.3035064e+00
  5.4980451e-01
  1.3601243e-01
 -3.6703424e+00
  2.6514041e+00
 -2.7491370e-01
 -6.7016969e+00
  1.8183029e-01
  1.1664780e+00
 -6.2205005e-01
  7.4437708e-01
  1.0570425e+00
 -3.5253695e-01
 -1.6742878e-01
 -1.6615754e-01
  1.4802629e+00
 -7.6058227e-01
  4.6782571e-01
  3.5197115e-01
 -1.5633247e+00
 -1.5810236e-01
 -5.9348211e-02
  2.9641291e-01
  7.7014828e-01
 -3.5659164e-02
  4.2793587e-01
  1.7468011e-01
  1.4906323e-01
 -1.0158741e+00
  2.2458189e+00
  1.1520302e+00
 -6.6586202e-01
 -4.8058382e-01
  3.6152634e-01
  1.7201451e+00
 -4.8471063e-01
  8.2867965e-02
  1.4435059e+00
 -1.2820705e+00
  1.7535300e+00
 -3.6561504e-02
 -1.9795014e-01
 -1.4529644e-01
 -3.6269429e-01
  8.7846649e-01
 -1.2870017e-01
 -9.7855043e-01
  1.8874180e+00
  5.2688461e-02
  2.5941129e+00
 -5.6665623e-01
 -3.3749051e-02
  6.4894539e-01
  1.3815042e+00
  9.7482920e-01
 -1.8538615e-02
  9.1179121e-01
 -4.5513389e-01
 -1.8794356e-01
 -1.0806789e-01
  7.3921281e-01
  9.4617540e-01
  3.8481435e-01
  5.9324078e-02
  3.6862817e-02
  1.3596602e-03
  4.9722552e-01
  3.6263555e-01
  5.3448617e-01
  1.3547105e-01
 -4.9426588e-01
 -1.8168941e-01
 -4.5804250e-01
  4.4165528e-01
 -3.0173227e-01
  1.3988099e-01
 -4.7410274e-01
  5.7349879e-01
  1.4353993e+00
  1.4970136e+00
  1.6847281e+00
  4.0981117e-01
  6.0822552e-01
 -1.5722178e+00
 -1.8017629e-01
 -9.4506308e-02
  6.5506780e-01
 -1.0651448e+00
  3.5028618e-02
  2.5332096e-01
  3.5227644e-01
 -6.2880552e-01
  4.9563566e-01
  8.9385152e-02
  2.9836189e-02
  1.0505658e-01
 -1.0408326e+00
  1.3398486e+00
  1.4373895e+00
 -8.8537270e-01
  1.2470486e-01
  2.9501750e+00
 -4.9972007e-01
  2.2065419e-01
  1.9708054e-01
 -7.9776227e-01
  1.1012785e+00
 -3.2340991e-03
  1.0573381e+00
 -1.5746297e+00
 -3.7970421e-01
  5.2224702e-01
 -1.3774730e-01
  1.2559135e+00
  2.5546926e-01
 -1.2316571e+00
 -1.2556883e+00
 -4.4665831e-01
  4.2722219e-01
 -9.5040518e-01
 -9.4586201e-02
  3.2465264e-01
 -1.3720301e+00
 -1.0567726e+00
 -6.5388077e-01
 -1.9720963e+00
  3.7988538e-01
  6.8793647e-02
 -4.9259096e-01
 -4.3136239e-02
 -7.5594825e-03
  6.6459000e-01
  6.7757243e-01
  1.4315008e-01
 -1.0691503e+00
 -6.9376546e-01
 -2.3485215e+00
  8.8007444e-01
 -3.4864035e-02
  2.2167146e+00
 -3.6209393e-01
 -1.2478135e-01
 -1.1871193e-02
  4.9488685e-01
 -1.9549309e+00
  2.5482423e+00
  2.1261899e-01
 -2.2004174e-01
 -1.2528253e+00
  1.6510525e-01
  3.8278976e-01
 -2.0082964e-02
  6.9562566e-01
  1.0143889e+00
 -8.0513585e-01
 -8.3373535e-01
  5.3398603e-01
 -8.5103261e-01
  4.8338565e-01
 -1.0036807e-01
 -2.9311952e-01
 -2.0620847e+00
 -1.9875956e-01
 -5.5700488e-02
 -3.0491301e-01
 -4.3584585e-01
 -6.3839877e-01
 -1.1987576e-02
  5.2924794e-01
 -4.9415997e-01
 -1.1255692e+00
  1.0215142e+00
  1.2517124e+00
  3.3858514e-01
 -6.0723907e-01
 -1.0783515e+00
  3.7495282e-01
 -9.7660227e-03
 -1.2182345e-01
  6.0897619e-01
  8.4461260e-01
 -2.1689306e-01
  1.9588294e-02
  1.0975507e+00
  3.9256066e-01
  1.6222949e-01
 -1.3328973e+00
 -1.9672662e-01
 -7.7047485e-01
 -9.5145650e-02
 -2.9805097e-01
  5.8139855e-01
  1.2203845e-02
  1.2080733e+00
  4.7098529e-01
  1.9669732e-01
 -1.4220831e-01
 -2.3701468e+00
 -1.8137333e+00
 -1.6276939e+00
  6.2777497e-02
 -2.1594424e+00
 -4.0904403e+00
  1.3260478e+00
  5.7964391e-01
 -6.5938368e-02
  6.2601137e-01
  1.6308173e+00
  1.1464976e+00
  6.4035797e-01
 -3.2775089e-01
 -3.8193634e-01
 -1.7210501e+00
 -3.6218020e-01
  2.8251991e-01
 -2.1411034e-01
 -2.3314187e-01
 -6.9203109e-01
 -1.0478567e+00
 -9.8715925e-01
 -5.7204747e-01
  1.8221860e-01
  3.4729473e-02
  3.1116164e-01
 -3.2317168e-01
 -4.2943877e-01
  6.5688920e-01
  6.4146727e-01
 -2.4431773e-01
  6.3644934e-01
 -1.4741192e+00
 -1.1253691e+00
  3.1153266e+00
  6.6409451e-01
  8.8556176e-01
 -2.1549435e-01
 -1.7637214e-01
  9.3317193e-01
 -1.7825820e+00
 -8.3291537e-01
 -6.4290956e-02
  1.8047169e+00
 -5.7787120e-01
  3.9784783e-01
  3.9364293e-01
 -5.8042789e-01
  1.8212454e+00
 -3.9134428e-02
  9.3802553e-01
  2.9083595e-01
 -2.9891150e+00
 -4.4522306e-01
  2.7595258e-01
  1.6412539e+00
  2.9367045e-01
  9.1984653e-01
  2.0985956e-01
 -1.5908451e+00
 -1.1616395e-01
  4.4336047e+00
  3.4863746e+00
 -2.5504681e-01
  4.6098127e+00
  5.1034857e-02
 -2.2475918e-01
 -3.0167431e-01
 -7.8428465e-01
 -2.5057266e+00
  1.4201183e+00
  3.7037072e-01
  5.6556076e-01
 -1.3493721e+00
 -2.2465813e+00
  1.0104632e+00
 -2.3686604e-01
  2.8727320e-01
  2.0954625e-01
 -2.9872956e-02
  2.4517047e+00
 -2.3348420e+00
 -5.1842445e-01
 -2.2236803e+00
  2.4676250e-01
 -1.3951789e-01
  1.9140479e-01
 -1.7816377e-01
 -2.4317411e-01
  5.3274959e-01
 -3.0938094e+00
  1.1641101e+00
  1.0810682e+00
  3.0365648e-02
  3.4348195e+00
  8.7070757e-01
  4.2482413e-04
  8.4941661e-01
 -2.1291843e-01
  2.6450294e-01
 -3.8477823e-02
  3.3593959e-01
  2.1875840e-01
 -3.0243490e+00
  2.1369883e-01
 -2.7646354e-01
  1.2613121e+00
 -5.6471837e-01
 -2.2505725e-02
 -2.0593741e+00
  1.9872153e-01
  5.2080423e-01
  4.9159086e-01
  1.0693794e+00
  1.5138143e-01
 -4.5956823e-01
 -7.2390340e-02
 -1.5711819e+00
 -2.1368628e+00
 -9.1855794e-01
  2.3048112e-01
  4.7667715e-01
  1.4423165e+00
 -2.3785995e-01
  1.3267644e-01
  6.9458729e-01
 -3.3347768e-01
 -1.1224808e+00
  1.6804312e+00
 -1.7306798e+00
  4.6562541e-01
  8.6131191e-01
 -1.3902628e+00
  1.0391170e+00
 -7.5340199e-01
 -4.2826498e-01
 -1.0259593e-01
 -1.6967155e+00
  9.3264532e-01
 -4.1049269e-01
 -5.2102643e-01
  4.3481320e-01
  1.3216183e-01
 -7.5598530e-02
  1.3263370e-01
  1.7397521e-01
 -5.2617002e-01
 -1.6707891e+00
 -1.8192371e+00
 -5.4399478e-01
 -8.6655095e-02
 -1.2748866e+00
 -4.9061301e-01
 -2.3477347e+00
  1.3309982e+00
  2.9458985e-01
  3.2479042e-01
 -1.3320425e+00
 -2.2130377e+00
 -2.5703053e+00
  2.2978857e+00
  8.3102322e-01
 -7.6728702e-01
  1.8484677e-01
 -2.2538865e+00
  1.2037625e+00
 -7.0895207e-01
 -1.9077480e+00
  3.6435561e+00
 -7.4901146e-01
 -8.0391622e-01
 -2.3044922e+00
  1.7506737e+00
  1.4775956e+00
  6.1708218e-01
  9.2871571e-01
  3.5183555e-01
 -9.1377622e-01
  3.8225311e-01
 -6.5348631e-01
 -4.6410000e-01
 -2.6739877e-02
  5.4649401e-01
  3.5636684e-01
 -5.6668770e-01
 -2.1110294e+00
 -1.3005210e+00
  8.7127656e-02
  4.0613911e-01
 -9.2923605e-01
  1.6145978e-02
  2.6239436e+00
  2.7257743e-01
  4.1560355e-01
  2.8096297e-01
 -3.1427333e-01
 -3.6793387e-01
  1.1006476e-01
  9.2838883e-01
 -1.0169300e+00
 -5.3758670e-02
  2.6795480e-01
  4.5705086e-01
  3.2124747e-02
 -3.3536297e-01
 -1.0295492e+00
  2.4815929e+00
  3.2690638e-01
  6.2323642e-01
  1.1681739e+00
  2.2069657e-02
 -1.4497851e+00
  6.5528965e+00
  1.2478782e+00
  8.3225429e-01
  2.3808929e-01
 -4.5341021e-01
 -1.9245269e+00
  1.2467562e+00
  1.4533632e+00
 -2.7266484e-01
  9.7413978e-04
 -1.9425260e+00
  2.0486388e+00
 -5.3348851e+00
  6.0507059e-01
  5.4624444e-01
 -6.6820282e-01
  5.6767958e-01
  8.1982359e-02
  7.2376810e-02
  3.8550943e-01
 -1.2376550e+00
 -4.8643923e-01
  1.0654097e+00
 -2.0585747e+00
  6.7883968e-01
  3.2252064e-01
  7.7092063e-01
  3.6998656e-01
 -5.7727379e-01
  9.2993075e-01
 -5.3130180e-01
  1.3093075e+00
  1.1737729e-01
 -1.4448118e+00
 -1.7347150e-01
 -3.3007767e-02
 -8.4940773e-01
  6.8962634e-01
 -1.6151752e+00
 -2.9551497e-01
  2.2857976e+00
  8.6479789e-01
  1.1984756e+00
 -1.0277716e+00
 -8.5282701e-01
 -8.1176788e-01
 -9.3679130e-02
 -9.6864593e-01
 -8.1153262e-01
 -1.4477091e-01
  9.8835182e-01
  8.2342112e-01
  4.3523248e-02
  7.4267823e-01
  1.3085423e+00
 -1.3159236e+00
 -7.0502526e-01
  6.4157194e-01
 -1.2523496e+00
  1.1466366e+00
  2.1384686e-02
 -9.2060816e-01
 -5.7532454e-01
  1.8745062e+00
  6.5051746e-01
  5.0729620e-01
  4.4976273e-01
  2.3218481e-01
  1.0629574e+00
  2.0265963e+00
  1.6692556e+00
  1.3778028e+00
 -8.9172947e-01
  9.1233480e-01
  4.7259206e-01
 -1.3809495e+00
  2.0893629e+00
 -1.9579735e-01
 -1.2289302e+00
  1.1102191e-01
  9.4549644e-01
 -1.2345454e+00
  3.2375768e-02
  1.5732499e+00
 -2.1777820e-02
 -2.8385481e-01
 -1.5050270e-01
  3.1939432e-01
 -2.0695622e+00
  2.6082444e-01
  5.2123147e-01
  4.5800734e-01
  7.6192103e-02
  1.3757197e+00
  4.8683753e+00
 -2.2940481e+00
 -2.3100777e+00
  4.9854475e-03
  7.2503579e-01
 -8.2457256e-01
 -3.9705008e-01
 -7.8167802e-01
 -4.6148103e-01
  3.8049170e-01
 -1.1084052e+00
 -3.6979833e-01
  6.2517095e-01
 -4.5550036e-01
 -1.0583287e-01
 -1.4417237e-01
 -3.5572909e-02
 -1.5241461e+00
  2.7598205e-01
 -4.4908771e-01
  1.9211301e+00
  5.9142470e-01
 -1.0699242e+00
  1.9839838e-01
 -1.3499111e-02
  2.2347984e-01
 -1.2377603e+00
 -1.2950182e+00
  5.6628662e-01
  5.5843494e-03
 -3.8834617e-01
 -3.8348696e-01
  7.3266536e-01
  3.0714872e-01
 -1.6152699e+00
 -2.4949074e+00
  3.7513056e-01
  7.5535011e-01
 -8.4541440e-01
 -2.6113844e-01
  1.0319725e+00
 -9.5659572e-01
 -3.5046668e+00
  4.7472870e-01
 -2.0248725e+00
 -2.2108321e+00
 -1.2691182e-01
 -1.5267328e+00
  6.6444910e-01
  5.9398700e-02
  1.1403627e+00
  4.7757256e-01
 -5.1556200e-01
  1.4662316e-01
 -7.1750991e-02
 -3.1730282e-01
  7.5763047e-01
 -2.4633245e+00
  4.5398587e-01
  1.5904396e+00
  2.6788589e-01
  2.9496244e-01
 -1.5531534e+00
  2.6185489e-01
  9.7952932e-01
  4.4505861e-02
  2.2805035e+00
 -2.1676131e-01
  9.3772765e-03
 -1.2673512e+00
 -9.6460246e-03
  3.5029869e+00
 -1.6510832e+00
  1.7908723e+00
  5.7589585e-01
 -5.5789036e-01
 -3.1025195e-01
 -1.3445833e+00
  1.2549615e+00
  2.4786799e+00
  7.6125604e-01
 -8.7348336e-01
 -8.0433106e-01
  6.0832763e-01
  1.4759670e+00
  6.9471371e-01
  5.8182752e-01
 -7.5262046e-01
 -5.7705003e-01
  4.6679243e-01
  1.3846163e+00
 -1.3605434e-02
  9.0366262e-01
 -8.4651120e-02
  3.2712641e-01
  1.8524275e+00
  5.3262621e-01
  5.7456839e-01
  1.9031743e+00
  9.3147582e-01
  3.2951865e-01
 -2.3376410e-01
 -8.1506962e-01
 -4.7353510e-02
  1.8650492e+00
  3.0451109e+00
  2.3166177e+00
  6.9537967e-02
  9.6301508e-01
  1.0830645e-01
 -5.5384951e+00
  1.2855585e-01
 -6.0261053e-01
 -1.4852190e-01
  3.7833208e-01
 -1.6154331e+00
 -2.3029845e+00
 -2.4525549e-01
 -2.0632319e-01
  2.6605004e-01
  2.4637739e-01
  2.6805878e-01
  3.0532491e+00
  9.7482675e-01
  7.0543319e-01
  3.2166221e+00
  2.0519163e-01
 -3.2555435e+00
 -1.3581591e+00
  1.4513785e+00
 -1.2831056e-02
  9.0970844e-02
 -3.3684039e-01
  8.5089719e-01
  6.7405432e-01
  1.5196092e-01
 -1.6025701e+00
  8.0098492e-01
  1.8350624e+00
 -9.6768272e-01
  9.8500803e-02
  1.1472481e+00
 -1.4860442e-01
  1.4786601e-01
  1.7368435e+00
 -1.1675915e+00
 -1.3822451e+00
  6.4792794e-01
  3.9310830e+00
  3.4986398e-01
  9.8650002e-01
 -5.6066191e-01
  2.1227596e+00
  2.5704985e+00
  6.9443023e-01
  1.1043972e+00
 -3.8991612e-01
 -5.6798607e-01
 -3.1900689e-01
  1.9237170e+00
 -1.7267258e+00
 -6.8925627e-02
  6.3973475e-01
  2.4214709e-01
 -3.5478899e-01
 -6.9568694e-01
  2.2367852e+00
 -1.3829776e+00
 -1.0269477e-01
  1.2762755e+00
  2.3053305e+00
 -2.0070332e-01
 -1.8253160e-01
  1.7227441e+00
  1.0032648e+00
 -1.7131951e-01
  1.1721115e+00
 -6.9617218e-01
  8.1350338e-01
  4.0126693e-01
  1.9067453e+00
 -3.8762110e-01
 -6.1150116e-01
  5.8004618e-01
  2.1629100e+00
  9.9186760e-01
  5.8922285e-01
 -2.0382969e+00
 -3.0609651e+00
 -2.6461177e+00
 -1.0030941e+00
  2.4236733e-02
  5.7740486e-01
 -2.2131279e-02
 -1.0607055e-01
 -3.8468397e-01
  1.8749131e+00
  1.0678457e+00
  4.5124149e-01
 -2.1794440e-01
  2.2856109e+00
 -2.2181976e-01
  1.9487796e+00
 -2.4483309e+00
 -1.9285714e-02
 -1.4512938e+00
 -5.6607437e-01
 -3.7863421e-01
 -1.1434278e+00
  2.2385293e-01
  1.1888129e+00
 -3.8898997e+00
 -3.1444557e+00
  1.3424935e+00
 -2.5441515e+00
 -3.6098547e+00
 -1.3601242e+00
 -2.7032995e+00
 -4.7927758e-01
 -1.2834229e-01
  9.1495830e-01
  2.9505906e-01
  4.9929363e-01
 -1.4986898e+00
  4.3538243e-01
 -8.9750063e-01
  3.0995700e-01
 -1.3123277e-01
 -1.6751924e+00
 -2.9481094e+00
 -1.6926687e+00
 -4.4992685e+00
 -1.4738109e+00
  7.1507955e-01
  7.1368837e-01
 -2.4588964e+00
  4.9823112e+00
 -2.7152350e+00
  1.1225529e+00
  1.0818540e+00
 -7.1015161e-01
 -6.7992762e-02
  1.0290444e+00
  5.7606930e-01
  1.5053279e+00
  4.7956881e-01
 -8.2303983e-01
 -3.3185382e+00
 -2.3872607e+00
 -1.1205655e+00
  1.3240691e+00
 -6.5173012e-01
 -1.5087448e+00
  3.9837964e+00
  1.3798629e+00
  2.2277036e+00
  1.9258776e+00
  2.3601985e+00
  2.0728333e-01
  9.7898656e-01
 -3.8315549e+00
 -5.9225899e-01
 -5.5793875e-01
  2.4740844e+00
 -1.6964358e-01
 -1.6060388e+00
 -6.5631924e+00
  2.7840608e-01
 -2.2910147e+00
 -2.2947226e-01
 -1.0382515e+00
  6.0652590e+00
 -2.9960747e+00
  1.4494627e+00
 -2.9911063e+00
  2.6929073e+00
  2.3451421e+00
 -1.4924251e-02
  1.3746219e+00
 -1.2556198e+00
  3.2917950e-01
  4.3901507e-02
 -2.2804315e+00
  1.6458298e-01
  1.9672374e-01
  6.9360334e-01
  2.0087039e-01
  1.3418546e-01
  4.6806252e-01
 -1.6866919e-01
 -3.9192697e-01
 -7.8377962e-01
  1.0329513e-01
 -4.8543787e+00
  5.9150286e+00
 -1.3508396e-01
  2.0494784e-01
 -4.2341840e-01
  6.1292565e-01
 -2.8253317e-01
 -2.0801052e-01
 -1.8444209e-01
 -7.4628167e-02
  9.8132849e-02
 -1.0326272e-01
  1.0047021e+00
  4.6597379e-01
  2.7962154e-01
 -2.7407703e-01
 -1.4016983e-01
  5.0660205e-01
 -1.9166028e-01
  1.9089868e+00
  7.0035890e-02
 -4.8255453e-01
  4.5239854e+00
  1.6477856e-01
  1.4637806e+00
 -5.6970572e-01
  7.2891809e-02
  3.5540798e-01
 -2.1204031e-01
 -3.2249135e-01
  8.0545597e-02
 -2.3574140e+00
  2.3508732e-01
 -1.7361586e-01
  5.9110284e-01
 -2.9041376e+00
 -1.5687422e-01
 -1.3916076e+00
 -4.7490165e-02
 -1.1202571e+00
 -3.5411854e+00
 -7.0331194e-02
 -1.6608213e-01
 -2.4052885e-01
  1.7252417e+00
 -4.5536357e-01
  7.4615180e-01
  7.5677037e-01
  5.0236940e-01
  3.2708481e-01
 -1.1798029e+00
 -1.0014413e-01
  9.7162974e-01
 -2.3893438e-01
  1.0702574e-01
 -8.1652170e-01
 -1.5680833e-01
  4.6953547e-01
  8.0519634e-01
  1.8768831e+00
 -4.8492947e-01
  2.7762551e+00
 -5.9602070e-01
 -1.2573986e+00
 -4.5000884e-01
  3.9790681e-01
  1.5014428e-01
  1.2357708e+00
  8.9762992e-01
  6.2376487e-01
 -4.5519787e-01
  2.4904568e+00
  1.6529009e-01
  3.9462924e-01
 -6.1197734e-01
 -2.7167614e+00
 -4.7732122e-02
 -3.6289927e-01
 -7.6016426e-02
  4.9592943e+00
 -1.1463884e-01
 -1.0681720e+00
  6.7598745e-02
 -9.6980506e-01
  9.1941732e-01
  2.3487628e-01
 -1.9969031e-02
 -6.4633358e-01
  8.8665259e-01
  9.5933515e-01
 -9.1926724e-01
 -2.4550288e+00
 -1.1851829e-01
 -2.4769864e+00
  6.8535323e+00
  1.1348923e+00
 -8.9474173e+00
  1.3323108e+00
 -4.6997166e-01
  3.7571175e+00
  1.5961144e-02
 -2.0280714e+00
 -5.6857926e-01
  3.5298735e-01
 -4.5798132e-01
 -1.2676742e+00
 -3.3178463e+00
  3.8054204e+00
 -1.3627486e+00
 -1.2377021e+00
 -2.9165161e-01
 -1.3016364e-01
 -3.0320086e+00
  1.3372125e-01
 -5.9056950e-01
 -1.7142717e+00
  3.7305650e-01
  7.7456361e-01
 -1.1086261e+00
 -1.0850272e+00
  3.6167872e-01
 -2.8460071e+00
  6.0047209e-01
 -4.7762626e-01
  1.9876230e+00
 -1.8117142e+00
 -1.8574873e+00
  7.9992014e-01
  8.4476501e-01
 -1.0891689e+00
  6.5289624e-02
  3.4685487e-01
 -1.5001220e-01
 -2.5684905e-01
  2.9232758e-01
 -8.4156078e-01
  1.1616337e+00
 -5.8930673e-02
 -5.2474141e-02
  1.1709563e+00
 -2.3496585e+00
 -6.6678107e-01
 -1.0147661e+00
 -2.2593341e+00
  9.5415288e-01
  1.1515311e+00
  1.0477839e+00
  2.5055811e+00
 -4.7051245e-01
  4.1657418e-02
  1.3828588e+00
  7.3327237e-01
  3.5987097e-01
 -8.5736567e-01
 -4.7034127e-01
  3.0107367e-01
 -9.3551266e-01
 -2.1347836e-01
  1.3941607e+00
  1.3296189e+00
 -3.2624492e-01
 -8.2156610e-01
  5.4440403e-01
  1.2948458e-01
 -7.9294580e-01
 -3.4750538e+00
 -1.1785507e+00
  1.0656284e+00
 -5.8458054e-01
  1.5079223e+00
 -2.9279837e-01
  4.1453028e-01
 -8.0128253e-01
 -4.2487476e-02
 -6.4920110e-01
 -2.1987426e+00
 -9.6876901e-01
 -2.6484615e-01
  3.8594493e-01
  1.3367304e-02
  3.3197351e+00
  4.2795043e+00
  1.9047813e+00
  1.9279302e+00
  1.3016542e-02
 -2.5587025e-01
 -1.5066565e+00
 -1.0859739e-01
  2.6111653e+00
  6.3500218e-02
  1.9564009e+00
 -1.3473979e+00
  3.2201943e-01
  5.5494390e-02
  4.2154207e+00
 -9.2631388e-01
 -5.9743947e-01
 -8.7897807e-01
 -1.3941052e+00
 -5.5407125e-01
  6.7583923e+00
  9.4553459e-01
 -8.6850718e-02
 -2.6412132e-01
  1.3987515e+00
  2.8987255e+00
 -4.0323979e-01
 -2.2591343e+00
 -7.3136359e-01
  1.5481558e-01
 -1.5653608e+00
 -1.7914035e+00
  5.1271868e-01
  1.3151905e-01
  7.7311307e-01
  1.1062047e+00
  4.4664904e-01
  1.0091584e-01
  4.8208165e-01
  1.5676899e+00
  3.7989190e-01
  1.4680357e-01
  8.6214021e-02
  8.3922577e-01
 -5.3893512e-01
  1.7304328e-01
 -2.3511455e+00
  3.1676280e+00
 -1.7535892e+00
 -2.3975921e+00
  6.4861031e+00
  5.3471627e+00
 -2.9057355e+00
  9.2116833e-02
  4.2295080e-01
 -3.8510390e-02
  1.1496358e+00
  5.1969385e-01
 -1.5917183e+00
  1.2574968e+00
  1.9275211e+00
 -4.6436676e-01
  1.8000089e-01
  4.0152407e-01
  9.9040586e-01
  3.4733728e-01
 -7.4242312e-01
 -5.6869447e-02
 -1.2084859e-01
  3.4548557e-01
 -3.6521924e+00
  1.5847788e+00
  7.3815930e-01
  1.4783332e+00
  7.7936870e-01
 -1.4614462e+00
 -3.5102415e-01
  3.5082512e-02
  7.4495679e-01
 -1.2007831e+00
  9.9432832e-01
 -1.1808737e-01
  9.0199843e-02
  2.1564527e+00
 -3.0225909e-01
  9.0007699e-01
  3.7054129e+00
  1.2673826e+00
 -1.2262102e+00
  1.7691433e+00
 -1.8689368e+00
 -1.0990845e+00
  6.2914890e-01
 -8.7685001e-01
  3.9732393e-02
  1.4734088e-01
  8.3918738e-01
 -1.1607651e+00
 -2.7130917e-01
 -1.0248492e+00
 -1.5013117e+00
 -5.3193893e+00
 -2.7181082e+00
 -7.8558999e-01
  8.4415108e-01
  2.2034225e+00
  1.1599590e+00
 -3.5374424e-01
  2.1506259e+00
 -6.7852139e-01
 -3.0567777e-01
 -2.4307201e+00
  3.6339455e+00
  4.1573843e-01
 -2.9862008e+00
  1.4251932e+00
  8.0123377e+00
  3.5040703e-01
 -5.8745480e-01
 -1.1890274e+00
  6.6449100e-01
 -4.0299162e-02
 -1.0699270e+00
  7.9659402e-01
 -7.1252406e-01
 -2.2054975e+00
 -2.0602577e+00
 -1.1695693e+00
  2.2705485e-01
  1.5210502e+00
  1.7856173e-02
 -5.4474905e-02
 -4.5671317e-01
  9.0843266e-01
  4.3069609e-02
 -4.5279273e-01
  1.1006002e+00
 -8.9465123e-01
 -4.1279638e-01
 -5.1227736e-01
 -1.1986215e+00
  1.1855421e+00
  6.4040703e-01
 -2.3837173e+00
 -3.5468823e-01
 -3.2775505e+00
 -1.8011951e+00
  2.7022505e-01
  1.2125613e-01
 -1.1212306e-01
 -5.6312883e-01
  9.1211021e-01
  1.5156597e-01
  3.4430575e-01
  4.6700010e-01
  2.2934377e-01
 -1.2254500e+00
  2.4358444e+00
 -1.2035165e+00
 -3.9925998e-01
 -3.9926070e-01
 -3.7446627e-01
  5.1257247e-01
 -8.4883177e-01
  3.3724371e-01
  5.8585107e-01
 -3.2284635e-01
 -1.0998738e+00
  1.4961226e+00
  1.8377092e+00
  1.4561139e-01
  2.2906607e-01
 -1.8711518e+00
 -7.6686609e-01
  2.1924987e+00
  5.7619381e-01
 -2.8987961e+00
  1.3212206e+00
  1.8020340e+00
 -2.2874163e-01
 -3.8642305e-01
  1.3103510e+00
  7.2469716e+00
 -1.2009840e+00
  1.3623573e+00
 -1.4715321e+00
 -1.7501477e+00
  9.9607728e-02
  3.0093247e-01
  5.5427384e+00
 -2.7933707e+00
 -1.1426390e+00
 -3.5730457e-01
 -4.2047903e-01
  2.4757161e+00
 -9.3252671e-01
  1.6238135e+00
  3.3164716e+00
  3.0974913e+00
  1.2328852e+00
 -4.1551099e+00
 -3.9415485e-01
 -4.9663701e+00
  5.0513446e-01
 -2.5132720e+00
 -4.6668869e-01
  7.1877623e-01
  2.1612759e+00
 -3.7027740e+00
 -2.4128002e-01
  1.3919936e+00
  3.7904635e-01
 -1.2224054e+00
  1.6602407e+00
  9.7198021e-01
  2.0595357e+00
 -1.8881226e+00
 -2.3057808e-01
  2.3490312e+00
 -2.4749773e+00
 -9.2234617e-01
  3.4784546e+00
  4.1949540e-01
 -1.4813860e-01
  1.6602600e+00
  2.0731919e+00
 -2.2820625e-01
  5.2322751e-01
  1.3256747e+00
  4.3663684e-01
  3.6075594e+00
 -5.1026278e+00
  3.6988473e+00
 -1.1316115e+00
 -7.5006759e-01
 -3.4813353e-01
 -5.2493043e+00
 -9.3482822e-01
 -1.1341754e+00
 -5.0719655e-01
  1.9595224e+00
 -1.2506889e+00
 -1.9353253e+00
 -2.1565522e-01
 -7.5788605e-01
 -2.1576796e+00
  8.6001921e-01
  5.6413904e-02
 -2.9718363e+00
 -4.3392771e-01
 -1.4458061e+00
 -3.5623381e+00
 -6.7422070e-02
 -9.1305482e-01
  2.7886925e+00
  9.2368536e-02
 -6.2527817e-01
 -3.8667205e-01
 -1.4599324e+00
 -6.0135037e-01
 -4.7132306e-02
 -2.4269722e+00
  6.0243318e-03
  4.5784461e-01
 -4.8952107e+00
 -3.0288928e+00
 -3.7643900e+00
  4.9198821e-01
  2.7583284e+00
 -6.4682257e-01
  5.8161551e-01
  2.1510491e+00
 -3.0389836e+00
 -1.0025401e+00
  2.2038617e+00
  6.2099122e-02
 -1.4165768e-01
  8.5314715e-01
  5.2471834e-01
  5.3245759e-01
  8.3481795e-01
 -1.4515836e+00
  3.2858476e-01
  2.9418129e-01
  4.5661387e-01
  1.9901205e+00
  3.2636840e-02
 -6.2781554e-01
  4.9557972e+00
 -9.5408872e-02
 -1.1998525e+00
 -6.8917125e-01
  7.4759763e-01
  3.2240033e+00
 -1.8727877e+00
  2.6307328e+00
  2.5234203e+00
 -1.9187033e+00
 -1.6990438e+00
  1.5830445e+00
  5.7935667e-01
 -9.7253382e-01
  3.7704372e-01
  7.0532489e-01
 -2.4959075e+00
 -8.1964159e-01
  4.0216527e+00
 -3.4414694e-01
 -3.4226305e+00
  1.6035836e+00
 -5.2130300e-01
 -1.1072233e+00
  8.4534174e-01
  9.4106889e-01
 -1.2431912e+00
 -9.0682977e-01
  2.4485236e-01
 -9.0373278e+00
  1.6633607e+00
 -9.6441406e-01
  3.9900775e+00
 -7.1407640e-01
  2.0890205e+00
  9.5537871e-01
  7.9963416e-02
 -5.1756841e-01
 -3.3088052e-01
  2.4302633e+00
 -2.0451507e-01
  6.4372325e-01
  3.2003137e-01
 -9.0339774e-01
 -3.2490727e-02
 -1.6451010e+00
 -2.0672660e+00
  1.6403911e+00
 -1.2609392e+00
 -6.2043674e-02
 -9.0959173e-01
 -3.9803061e+00
  2.2644401e+00
  2.3886750e-02
  1.0533174e+00
  3.1617508e+00
  1.8252771e+00
 -7.0819563e-01
 -3.6451867e-01
  5.1870936e-01
  1.5200616e+00
 -1.0624714e+00
  3.2905725e-01
  2.0919886e+00
  1.1132758e+00
  1.2880803e+00
  2.0997128e+00
 -1.5010191e+00
 -3.4668535e-01
  1.3105532e+00
 -9.1191500e-01
 -2.4636793e-01
 -2.2664976e-01
  3.4640520e+00
 -3.2022902e-01
  6.4567018e-01
  3.7864625e-01
  4.1794771e-01
  2.0882192e+00
  2.7112832e+00
 -5.4671150e-02
  8.5690767e-01
 -3.5204575e+00
  1.8298887e+00
 -5.1685452e+00
 -1.0872028e+00
 -7.0445838e+00
  7.0325261e-01
 -1.2055789e-01
 -8.0243164e-01
 -1.7672031e+00
 -2.3502095e+00
 -1.0474254e-01
 -1.9845951e+00
  5.9925026e-01
  5.4895318e-01
  1.5325108e+00
 -2.1279609e+00
  3.9018193e-01
  2.2134981e-01
 -6.6407120e-01
  5.9565611e+00
  4.8914575e-03
 -7.9935384e-01
  1.0206716e+00
 -1.1028759e+00
 -1.8531047e-02
 -7.0231014e-01
 -1.0319785e+00
  3.0593598e+00
 -2.0597793e-01
  1.4798685e+00
  2.1226737e+00
  4.0654693e+00
  2.5683465e+00
  1.3118795e+00
 -1.2393199e+00
  7.8447378e-01
 -3.6236780e+00
  6.5347606e-01
 -1.8685262e+00
 -1.4196892e+00
 -9.0749705e-01
 -2.3316884e-02
 -7.6036310e-01
 -5.4931360e-01
  1.2228712e+00
  1.1615877e-01
 -3.9409781e-01
 -1.9639248e+00
  1.8869845e-02
  3.6419990e+00
  2.5371442e+00
 -3.9925718e+00
 -1.5720018e+00
  1.5170902e-01
  1.2619390e+00
 -2.7389848e+00
 -6.6750169e-01
  2.8946072e-01
 -3.1983805e+00
 -7.0864850e-01
 -3.6500558e-02
 -1.5740337e+00
 -2.4293721e+00
  4.5481125e-01
  2.0567840e-02
  9.5051008e-01
 -1.5133731e+00
  3.1536074e+00
  1.6065967e+00
  3.6126366e-01
 -2.5550902e+00
 -1.2432096e+00
 -8.5805011e-01
  3.2839254e-01
  1.1444854e+00
 -6.3532376e+00
  1.3227035e+00
  1.5813401e+00
  3.2996175e+00
  2.9620877e-01
 -3.1487563e+00
  1.4998318e+00
  1.1916891e+00
  1.8032597e+00
 -1.5549241e+00
 -4.3432832e-01
 -4.6210527e+00
 -6.1895185e+00
 -1.6106004e-01
  9.3153095e-01
 -2.3446672e+00
 -3.9364886e-01
 -5.0452266e+00
  3.3805411e+00
 -3.9840219e+00
 -1.0684659e+00
  2.2614944e+00
 -2.4852951e-01
 -2.4627879e+00
  1.3663936e+00
  3.8108566e+00
 -1.2301919e+00
  5.5830783e-01
  9.0508595e-02
 -1.1040564e-01
  8.7871752e+00
 -2.1967771e+00
 -1.0715178e+00
  5.2754335e+00
  2.2864025e+00
  9.2112613e-01
 -1.0176632e+00
 -5.4809336e-02
 -2.3264112e+00
  7.7698308e-01
  1.5565135e+00
  1.1770955e-01
 -5.6683455e+00
 -3.1359100e+00
  7.5839877e-01
 -3.3604750e-01
 -3.9863339e-01
  1.9200292e+00
 -7.7955890e+00
  3.0647209e+00
 -1.2436949e+00
  1.9424058e+00
 -1.0115119e+00
 -1.3656441e+00
 -1.6427281e-01
 -1.4575121e-01
 -1.2675439e+00
 -3.6629388e+00
  4.2597041e-01
 -2.8765678e+00
  3.6699453e-01
  1.3578135e-01
 -1.2775478e+00
 -3.8625896e-01
 -4.7724061e+00
  4.9281687e-01
 -3.0187291e-01
 -1.0369675e+00
  1.8648551e-01
 -2.6673341e+00
  2.2766361e-01
 -1.2546089e-01
 -2.5388517e+00
 -1.3447859e+00
 -1.0298103e+00
  2.1165683e+00
 -2.0523448e+00
  5.6252882e-02
  2.9889256e-02
  8.8446975e-01
  6.8110025e-01
 -2.4288848e-01
 -5.1114969e-02
 -2.7852455e-01
  7.5548147e-03
 -6.6295677e-01
  4.9475840e-01
 -6.8509251e-01
 -1.4063504e+00
  2.7490294e+00
  1.7020143e+00
  2.3877811e+00
 -4.7100982e-01
 -2.1200457e-01
 -7.5467199e-01
  8.2361275e-01
 -1.3911320e+00
  1.9957830e+00
 -2.1150658e+00
 -3.1313202e-01
 -4.0861118e-01
  4.8951522e-01
  3.5160381e-01
 -8.6996418e-01
 -1.6620253e+00
  1.7423819e-01
 -2.7124803e+00
 -7.4715090e-01
  1.3785464e+00
 -9.1041583e-01
  8.2918316e-01
 -3.1115457e-01
 -1.5044361e+00
  5.9196386e-02
  5.3350747e-01
 -7.6116610e-01
  6.0918325e-01
  1.2046491e-01
  2.0657201e+00
  1.0744475e+00
  4.5951921e-01
  1.4593962e+00
 -1.2665449e+00
 -5.2535623e-01
 -1.5342337e+00
  1.6336358e+00
 -1.0328535e+00
  1.2205545e+00
 -3.2316141e+00
 -1.7616405e+00
 -1.0922099e+00
 -9.0701967e-02
 -1.6001581e+00
 -1.2882304e+00
 -2.3748031e-01
 -8.6403680e-01
  4.7780362e-01
  6.1193693e-01
 -6.8574297e-01
  3.3348027e-01
  1.5571226e+00
  4.0503967e-01
  4.9808952e-01
  4.8277550e+00
  1.6219166e-01
 -1.8126724e+00
  2.6506310e+00
 -3.6608765e+00
 -1.0073707e+00
  3.3054178e+00
 -2.4042606e-01
 -8.7085694e-01
  1.2877710e+00
  8.2031533e-02
  3.0597189e-01
  2.5265372e+00
  1.2068588e+00
  3.1826606e-01
  9.6552044e-01
  2.1482918e+00
  1.0230231e-01
  3.1434479e+00
 -3.3019152e+00
  1.0255502e+00
  8.2816911e-01
  6.1033864e-02
  2.6954591e+00
  2.1029346e+00
  6.2431107e+00
 -2.6020062e+00
  3.7581406e+00
 -5.1165089e-02
  5.2665085e-01
 -6.4525604e-01
  2.0809758e+00
  1.6078643e+00
  8.5127455e-01
 -6.3377037e+00
  1.4467851e+00
 -9.8241788e-01
 -1.0506984e+00
  3.7088640e+00
  1.0059384e-01
  3.9048152e+00
  2.8061059e+00
  4.5237216e-01
  2.0876284e+00
  7.9870468e-01
 -3.7130855e-02
  2.0729573e+00
  6.3614607e+00
 -3.5748479e+00
  1.1507978e+00
 -1.1552647e+00
 -3.4928283e-01
  4.4021961e-01
 -4.1877355e-02
  2.1942990e-01
 -9.2769015e-01
 -5.6935966e-01
  1.1423844e+00
  2.6753393e-01
  7.1355230e-01
 -3.4475145e-01
  1.9202880e+00
  2.0629829e-01
 -1.2299989e-01
  3.6577776e-01
  1.1412046e+00
  9.4900891e-02
 -2.0197178e-01
  2.7671516e+00
  1.1924120e-01
 -2.3092537e+00
 -1.8981598e-01
 -6.0328670e-02
 -1.4692044e+00
 -4.9478641e+00
  8.4439524e-02
 -2.7071838e+00
  2.8472722e-02
 -1.3638860e-01
  4.0357479e-01
 -5.1457620e-01
 -2.3660293e+00
  7.0235515e-01
 -1.3745996e-02
 -2.1344328e+00
  4.7423473e-01
 -1.5483885e+00
 -6.9662714e-01
  5.1293093e-01
  3.5656345e-01
 -1.0406674e+00
 -2.5593960e+00
 -4.1078162e-01
 -4.2411618e+00
 -3.5626602e-01
  1.6126821e+00
 -9.4132662e-01
  7.7023000e-01
 -1.8196039e+00
 -2.2146623e+00
